svm_type c_svc
kernel_type rbf
gamma 0.1
nr_class 2
total_sv 621
rho 0.671422
label 1 -1
nr_sv 69 552
SV
2.263720023323697 171:1 185:1 196:1 207:1 217:1 223:1 281:1 290:1 291:1 
1.501531155978861 35:1 36:1 53:1 66:1 81:1 97:1 149:1 185:1 196:1 207:1 217:1 250:1 277:1 281:1 290:1 291:1 292:1 
1.088125376525766 117:1 125:1 126:1 127:1 128:1 129:1 130:1 131:1 132:1 133:1 134:1 135:1 136:1 137:1 138:1 139:1 140:1 141:1 142:1 185:1 196:1 213:1 214:1 217:1 290:1 
1.621911852603013 35:1 36:1 37:1 47:1 55:1 57:1 69:1 72:1 93:1 97:1 98:1 105:1 106:1 117:1 149:1 157:1 164:1 169:1 185:1 195:1 196:1 203:1 217:1 218:1 225:1 240:1 245:1 275:1 276:1 281:1 290:1 291:1 292:1 294:1 295:1 296:1 
0.5766637113857942 117:1 125:1 126:1 127:1 128:1 129:1 130:1 131:1 132:1 133:1 134:1 135:1 136:1 137:1 138:1 139:1 140:1 141:1 142:1 185:1 196:1 213:1 214:1 217:1 245:1 277:1 290:1 
3.671710679885865 56:1 67:1 117:1 277:1 289:1 
1.669034391296079 55:1 56:1 67:1 109:1 117:1 173:1 216:1 223:1 247:1 263:1 277:1 289:1 
2.177688040051595 82:1 152:1 188:1 189:1 211:1 266:1 267:1 281:1 
10 
10 
8.034597722692524 99:1 207:1 208:1 225:1 
2.532414002454704 98:1 117:1 205:1 217:1 245:1 247:1 263:1 276:1 293:1 
10 245:1 
0.1419246766513662 76:1 77:1 
4.216494806717787 38:1 63:1 64:1 204:1 217:1 251:1 
2.158681160938972 57:1 59:1 68:1 87:1 102:1 109:1 115:1 147:1 161:1 206:1 217:1 218:1 247:1 249:1 251:1 263:1 277:1 281:1 295:1 299:1 
10 263:1 
6.056197723571482 76:1 
3.923528227967375 76:1 223:1 
10 
10 76:1 
2.889534595746011 219:1 220:1 248:1 
7.312028490059976 115:1 171:1 219:1 
10 62:1 161:1 265:1 
1.865444642454379 50:1 54:1 106:1 108:1 149:1 168:1 171:1 206:1 207:1 212:1 219:1 220:1 228:1 230:1 248:1 258:1 261:1 298:1 
10 
0.9961452878864259 57:1 98:1 153:1 171:1 197:1 198:1 199:1 200:1 201:1 202:1 231:1 277:1 278:1 298:1 
1.216762946222734 35:1 47:1 68:1 73:1 98:1 102:1 117:1 153:1 197:1 198:1 199:1 200:1 201:1 202:1 216:1 247:1 250:1 263:1 270:1 277:1 278:1 299:1 
0.42879061167067 47:1 57:1 102:1 153:1 197:1 198:1 199:1 200:1 201:1 202:1 247:1 250:1 263:1 277:1 278:1 
1.822280899517312 35:1 55:1 57:1 72:1 109:1 149:1 197:1 198:1 199:1 200:1 201:1 202:1 206:1 207:1 208:1 223:1 247:1 250:1 277:1 281:1 282:1 299:1 
1.095322584629973 197:1 198:1 199:1 200:1 201:1 202:1 277:1 278:1 
10 
10 263:1 295:1 
4.05140847641031 190:1 191:1 
2.012838097654619 37:1 65:1 75:1 81:1 117:1 168:1 190:1 191:1 203:1 223:1 263:1 277:1 281:1 
3.687126544382866 38:1 55:1 57:1 190:1 204:1 211:1 
1.691777166324654 45:1 54:1 65:1 87:1 88:1 144:1 170:1 190:1 191:1 192:1 206:1 217:1 231:1 249:1 260:1 263:1 277:1 295:1 298:1 299:1 
1.278890744217657 35:1 79:1 185:1 245:1 250:1 292:1 
2.816084595286109 35:1 115:1 149:1 185:1 186:1 238:1 247:1 263:1 
2.255878303192046 35:1 48:1 99:1 185:1 186:1 217:1 274:1 
10 35:1 117:1 217:1 
2.072245425394988 54:1 55:1 57:1 81:1 83:1 102:1 106:1 109:1 149:1 157:1 168:1 185:1 195:1 207:1 216:1 230:1 240:1 258:1 260:1 281:1 292:1 
0.9231861881261112 39:1 53:1 66:1 76:1 77:1 100:1 111:1 116:1 149:1 150:1 155:1 171:1 196:1 206:1 224:1 237:1 238:1 252:1 255:1 256:1 263:1 273:1 279:1 
0.129700222161775 39:1 53:1 66:1 76:1 77:1 100:1 111:1 116:1 149:1 150:1 196:1 207:1 224:1 237:1 238:1 255:1 256:1 263:1 273:1 279:1 
0.3373073286612952 39:1 53:1 66:1 76:1 77:1 100:1 109:1 111:1 116:1 149:1 150:1 196:1 224:1 237:1 238:1 255:1 256:1 263:1 273:1 279:1 
1.347868880668907 39:1 75:1 76:1 77:1 106:1 116:1 149:1 150:1 168:1 196:1 205:1 206:1 207:1 229:1 249:1 255:1 263:1 273:1 281:1 
1.25076201895094 39:1 76:1 77:1 106:1 116:1 117:1 149:1 150:1 196:1 208:1 216:1 228:1 231:1 255:1 263:1 273:1 
10 79:1 
10 105:1 173:1 183:1 223:1 245:1 277:1 
10 53:1 105:1 207:1 282:1 
4.120192075151754 47:1 68:1 96:1 106:1 167:1 171:1 212:1 225:1 233:1 257:1 277:1 281:1 
2.671169599244367 35:1 68:1 96:1 167:1 190:1 206:1 212:1 216:1 233:1 249:1 257:1 277:1 281:1 293:1 
9.790200017070113 95:1 117:1 
1.370200882287449 62:1 76:1 91:1 93:1 95:1 97:1 98:1 107:1 115:1 117:1 154:1 194:1 230:1 231:1 247:1 250:1 252:1 260:1 263:1 292:1 294:1 
1.088944616393149 93:1 95:1 117:1 
1.253615305357258 35:1 76:1 77:1 93:1 94:1 95:1 117:1 151:1 160:1 166:1 182:1 215:1 230:1 234:1 247:1 250:1 262:1 264:1 300:1 
0.3874922299539385 38:1 76:1 91:1 212:1 263:1 277:1 295:1 
2.219734362042531 35:1 45:1 55:1 91:1 92:1 102:1 115:1 117:1 168:1 205:1 206:1 207:1 212:1 218:1 240:1 272:1 281:1 294:1 296:1 298:1 
1.935013172410096 91:1 92:1 161:1 205:1 212:1 263:1 295:1 296:1 
1.547050249838097 41:1 55:1 75:1 76:1 91:1 92:1 102:1 148:1 161:1 172:1 205:1 207:1 212:1 222:1 225:1 226:1 242:1 275:1 277:1 282:1 296:1 299:1 
2.880220476752345 73:1 74:1 99:1 205:1 225:1 233:1 
2.781810868872015 73:1 76:1 205:1 
2.486752935788829 53:1 55:1 59:1 73:1 74:1 117:1 144:1 149:1 171:1 205:1 206:1 207:1 217:1 227:1 229:1 248:1 281:1 298:1 
10 55:1 217:1 
1.409197254358406 35:1 48:1 61:1 62:1 99:1 205:1 225:1 232:1 233:1 237:1 245:1 251:1 253:1 274:1 277:1 281:1 
5.159320870766161 42:1 43:1 
1.084366895941292 41:1 42:1 43:1 163:1 258:1 259:1 
10 281:1 
10 
-10 35:1 76:1 
-1.244458860896418 73:1 74:1 115:1 205:1 230:1 250:1 
-0.4435474146658887 55:1 250:1 292:1 
-0.2709551362246354 35:1 41:1 55:1 68:1 73:1 105:1 109:1 171:1 172:1 190:1 208:1 250:1 281:1 
-0.701163400485838 55:1 73:1 74:1 197:1 205:1 243:1 250:1 
-3.322667404709294 73:1 
-0.3877068106940508 46:1 52:1 60:1 73:1 75:1 76:1 93:1 110:1 112:1 117:1 120:1 121:1 122:1 123:1 124:1 143:1 146:1 171:1 175:1 176:1 177:1 178:1 179:1 180:1 181:1 184:1 187:1 210:1 213:1 214:1 219:1 243:1 247:1 250:1 263:1 284:1 285:1 286:1 287:1 288:1 
-0.2140940135710009 69:1 115:1 117:1 148:1 161:1 196:1 250:1 258:1 263:1 277:1 281:1 
-0.3967171911588969 57:1 106:1 115:1 117:1 148:1 161:1 207:1 225:1 233:1 245:1 247:1 248:1 250:1 263:1 274:1 277:1 281:1 295:1 
-0.5199946705811147 35:1 39:1 41:1 57:1 68:1 73:1 75:1 91:1 105:1 109:1 112:1 173:1 190:1 222:1 223:1 225:1 233:1 251:1 260:1 274:1 275:1 
-0.1053429177768788 35:1 51:1 55:1 57:1 59:1 69:1 81:1 83:1 93:1 98:1 101:1 102:1 105:1 107:1 109:1 117:1 156:1 157:1 161:1 171:1 172:1 194:1 206:1 207:1 216:1 223:1 250:1 252:1 277:1 279:1 281:1 298:1 299:1 
-0.7865185696356523 57:1 63:1 156:1 228:1 
-0.5341323746743653 98:1 105:1 115:1 117:1 247:1 252:1 282:1 
-0.6810642634536755 65:1 105:1 207:1 263:1 
-10 105:1 173:1 183:1 223:1 245:1 277:1 
-0.6313367017294124 35:1 54:1 55:1 65:1 76:1 105:1 148:1 161:1 168:1 173:1 183:1 223:1 245:1 250:1 263:1 277:1 279:1 281:1 295:1 
-0.122455517095547 38:1 57:1 60:1 65:1 98:1 105:1 107:1 109:1 117:1 164:1 183:1 204:1 263:1 295:1 
-1.929826496548001 35:1 53:1 55:1 105:1 207:1 282:1 
-3.605504824747797 35:1 53:1 105:1 207:1 217:1 282:1 
-0.8003004605338541 55:1 281:1 298:1 
-0.08978245880898404 35:1 37:1 38:1 53:1 55:1 57:1 62:1 70:1 93:1 117:1 148:1 155:1 161:1 171:1 203:1 204:1 205:1 207:1 208:1 216:1 217:1 223:1 232:1 249:1 261:1 263:1 281:1 293:1 295:1 
-0.1918071075341278 38:1 51:1 55:1 57:1 62:1 68:1 81:1 87:1 91:1 106:1 115:1 149:1 168:1 205:1 247:1 263:1 265:1 272:1 277:1 281:1 295:1 
-0.08539993701290058 38:1 47:1 57:1 59:1 62:1 75:1 87:1 101:1 102:1 106:1 107:1 108:1 109:1 114:1 115:1 117:1 144:1 148:1 154:1 158:1 165:1 204:1 206:1 207:1 216:1 217:1 223:1 250:1 252:1 275:1 281:1 282:1 283:1 292:1 294:1 298:1 299:1 
-0.580103914290098 38:1 55:1 117:1 217:1 
-0.0720455348979426 35:1 38:1 45:1 50:1 54:1 55:1 57:1 72:1 81:1 88:1 102:1 104:1 106:1 108:1 109:1 114:1 117:1 144:1 149:1 164:1 169:1 171:1 172:1 193:1 207:1 208:1 217:1 226:1 227:1 229:1 231:1 239:1 244:1 249:1 252:1 265:1 272:1 273:1 280:1 281:1 282:1 283:1 294:1 298:1 
-0.1609857317467138 38:1 45:1 47:1 50:1 54:1 55:1 59:1 71:1 72:1 75:1 81:1 83:1 88:1 97:1 103:1 104:1 108:1 109:1 114:1 117:1 144:1 149:1 155:1 168:1 169:1 171:1 172:1 207:1 217:1 226:1 227:1 229:1 231:1 232:1 244:1 249:1 250:1 265:1 271:1 272:1 273:1 280:1 281:1 283:1 294:1 298:1 
-0.1195013329746691 35:1 37:1 45:1 50:1 54:1 55:1 72:1 81:1 104:1 106:1 108:1 109:1 114:1 117:1 144:1 149:1 157:1 161:1 169:1 171:1 172:1 193:1 203:1 206:1 207:1 208:1 216:1 217:1 221:1 226:1 227:1 229:1 231:1 232:1 235:1 239:1 244:1 248:1 249:1 252:1 265:1 272:1 273:1 281:1 282:1 283:1 294:1 298:1 
-0.1410612200329218 35:1 45:1 72:1 102:1 106:1 117:1 144:1 149:1 161:1 172:1 207:1 229:1 232:1 240:1 245:1 249:1 261:1 272:1 
-0.09972011462920748 69:1 70:1 106:1 109:1 205:1 212:1 225:1 265:1 272:1 
-0.05019869355054147 35:1 44:1 54:1 55:1 57:1 69:1 70:1 81:1 87:1 106:1 107:1 109:1 117:1 144:1 149:1 164:1 165:1 171:1 205:1 207:1 221:1 222:1 236:1 241:1 245:1 249:1 261:1 271:1 272:1 281:1 294:1 
-0.1491064690449545 47:1 54:1 57:1 68:1 72:1 87:1 89:1 106:1 107:1 114:1 118:1 119:1 144:1 147:1 154:1 161:1 194:1 207:1 245:1 248:1 249:1 250:1 260:1 272:1 281:1 282:1 294:1 299:1 
-0.01407102534235138 35:1 55:1 57:1 59:1 68:1 75:1 81:1 89:1 102:1 104:1 108:1 109:1 114:1 118:1 171:1 207:1 226:1 235:1 245:1 265:1 294:1 
-0.1431774764306351 50:1 54:1 55:1 57:1 59:1 76:1 89:1 102:1 104:1 106:1 107:1 109:1 117:1 118:1 119:1 154:1 168:1 171:1 205:1 206:1 207:1 208:1 221:1 222:1 223:1 226:1 249:1 252:1 265:1 272:1 282:1 294:1 298:1 
-0.002482954871251429 45:1 50:1 54:1 69:1 75:1 89:1 106:1 107:1 108:1 115:1 118:1 149:1 171:1 205:1 206:1 207:1 208:1 217:1 221:1 222:1 235:1 236:1 248:1 272:1 274:1 277:1 281:1 294:1 298:1 
-0.01556544545229146 45:1 54:1 69:1 104:1 106:1 107:1 108:1 115:1 118:1 149:1 171:1 205:1 206:1 207:1 208:1 217:1 221:1 222:1 223:1 231:1 232:1 235:1 236:1 248:1 249:1 272:1 274:1 277:1 281:1 294:1 298:1 
-0.07110698253000444 35:1 45:1 54:1 69:1 89:1 97:1 106:1 107:1 108:1 114:1 115:1 118:1 149:1 155:1 164:1 171:1 205:1 206:1 207:1 208:1 217:1 221:1 222:1 231:1 235:1 236:1 248:1 249:1 272:1 273:1 274:1 277:1 281:1 298:1 
-0.01102016631435946 249:1 
-0.05918801052110729 35:1 37:1 38:1 45:1 57:1 68:1 71:1 83:1 88:1 106:1 108:1 118:1 119:1 149:1 155:1 169:1 203:1 218:1 221:1 228:1 232:1 240:1 241:1 248:1 249:1 260:1 261:1 272:1 273:1 281:1 295:1 
-0.08667788689796428 54:1 57:1 68:1 76:1 81:1 97:1 108:1 109:1 115:1 117:1 149:1 195:1 217:1 223:1 232:1 249:1 272:1 277:1 281:1 295:1 
-0.8826437359238752 68:1 265:1 272:1 
-0.3083315056917085 45:1 55:1 65:1 68:1 76:1 77:1 80:1 88:1 103:1 107:1 117:1 144:1 149:1 154:1 155:1 158:1 171:1 194:1 196:1 206:1 208:1 217:1 230:1 232:1 248:1 258:1 263:1 272:1 281:1 292:1 295:1 
-0.4931169870848727 35:1 38:1 51:1 76:1 77:1 81:1 107:1 115:1 117:1 204:1 212:1 247:1 272:1 277:1 281:1 297:1 
-0.1581350453556741 35:1 38:1 45:1 50:1 55:1 57:1 59:1 62:1 76:1 77:1 81:1 83:1 89:1 102:1 106:1 107:1 109:1 115:1 117:1 118:1 119:1 149:1 154:1 155:1 161:1 171:1 204:1 206:1 207:1 208:1 216:1 222:1 223:1 240:1 248:1 252:1 263:1 272:1 273:1 277:1 280:1 294:1 
-0.1627430334970453 35:1 38:1 44:1 50:1 54:1 55:1 57:1 62:1 69:1 76:1 77:1 81:1 83:1 89:1 102:1 106:1 107:1 109:1 115:1 117:1 118:1 119:1 154:1 155:1 161:1 165:1 168:1 171:1 204:1 206:1 207:1 208:1 222:1 223:1 231:1 235:1 236:1 240:1 252:1 263:1 269:1 272:1 273:1 277:1 294:1 
-0.1582410863090815 35:1 38:1 50:1 54:1 55:1 57:1 62:1 69:1 75:1 76:1 77:1 81:1 83:1 97:1 102:1 106:1 115:1 117:1 118:1 119:1 155:1 161:1 165:1 169:1 171:1 204:1 206:1 207:1 208:1 216:1 223:1 225:1 240:1 263:1 272:1 273:1 277:1 282:1 295:1 
-0.2463851429665698 35:1 37:1 38:1 45:1 50:1 53:1 54:1 55:1 57:1 62:1 68:1 69:1 75:1 78:1 81:1 83:1 88:1 89:1 93:1 97:1 102:1 104:1 106:1 107:1 108:1 109:1 117:1 118:1 119:1 148:1 149:1 154:1 158:1 161:1 164:1 169:1 171:1 172:1 193:1 203:1 204:1 205:1 206:1 207:1 208:1 216:1 217:1 225:1 227:1 231:1 232:1 235:1 241:1 242:1 247:1 248:1 249:1 252:1 258:1 261:1 271:1 272:1 274:1 275:1 281:1 282:1 283:1 
-0.2608625607524082 37:1 38:1 45:1 50:1 54:1 55:1 57:1 59:1 62:1 68:1 69:1 70:1 71:1 75:1 78:1 80:1 81:1 83:1 89:1 90:1 97:1 101:1 102:1 104:1 106:1 107:1 108:1 109:1 114:1 115:1 117:1 118:1 119:1 144:1 148:1 149:1 154:1 155:1 156:1 157:1 164:1 165:1 169:1 171:1 193:1 194:1 196:1 203:1 204:1 206:1 207:1 208:1 217:1 221:1 223:1 225:1 227:1 231:1 235:1 236:1 241:1 242:1 248:1 249:1 250:1 252:1 258:1 261:1 271:1 272:1 274:1 275:1 277:1 281:1 282:1 283:1 294:1 298:1 299:1 
-0.1115258869865619 38:1 50:1 55:1 57:1 59:1 69:1 70:1 75:1 81:1 97:1 104:1 107:1 109:1 117:1 148:1 149:1 155:1 156:1 157:1 169:1 170:1 171:1 204:1 207:1 208:1 216:1 217:1 221:1 223:1 227:1 235:1 242:1 245:1 271:1 272:1 281:1 282:1 294:1 298:1 
-0.07263198742055244 54:1 75:1 87:1 89:1 102:1 104:1 108:1 109:1 115:1 117:1 118:1 119:1 149:1 154:1 164:1 169:1 171:1 194:1 223:1 225:1 231:1 236:1 241:1 248:1 250:1 252:1 258:1 272:1 273:1 282:1 
-0.1808956775157581 38:1 54:1 65:1 147:1 149:1 171:1 204:1 206:1 207:1 212:1 226:1 227:1 228:1 229:1 231:1 248:1 249:1 281:1 282:1 298:1 299:1 
-0.202821136529036 35:1 44:1 54:1 55:1 59:1 62:1 68:1 69:1 70:1 79:1 85:1 88:1 105:1 106:1 107:1 108:1 109:1 115:1 118:1 119:1 144:1 145:1 149:1 154:1 155:1 156:1 157:1 158:1 161:1 168:1 169:1 171:1 193:1 206:1 207:1 218:1 221:1 222:1 223:1 229:1 231:1 235:1 236:1 241:1 248:1 249:1 250:1 260:1 261:1 272:1 281:1 282:1 294:1 295:1 298:1 299:1 
-0.09060624274013614 38:1 119:1 169:1 204:1 208:1 223:1 249:1 
-0.00838264715717218 68:1 107:1 119:1 194:1 208:1 232:1 249:1 
-0.3179504634362971 118:1 119:1 161:1 
-0.2072708724909678 37:1 38:1 45:1 47:1 50:1 54:1 55:1 57:1 62:1 69:1 71:1 81:1 90:1 97:1 102:1 104:1 107:1 108:1 109:1 117:1 119:1 144:1 149:1 154:1 155:1 157:1 161:1 164:1 169:1 170:1 171:1 193:1 196:1 206:1 207:1 217:1 221:1 222:1 223:1 225:1 226:1 227:1 231:1 232:1 240:1 241:1 252:1 271:1 272:1 273:1 275:1 281:1 282:1 283:1 298:1 
-0.1042737771321073 47:1 50:1 51:1 54:1 55:1 57:1 69:1 71:1 97:1 102:1 106:1 108:1 109:1 115:1 117:1 118:1 119:1 144:1 148:1 149:1 161:1 164:1 168:1 169:1 171:1 206:1 207:1 223:1 225:1 226:1 231:1 241:1 250:1 261:1 272:1 277:1 281:1 283:1 294:1 298:1 
-1.587809749710231 55:1 117:1 217:1 
-0.2617991762320112 78:1 117:1 225:1 227:1 272:1 294:1 
-0.2570267140695592 37:1 45:1 54:1 69:1 79:1 85:1 106:1 149:1 203:1 225:1 232:1 245:1 248:1 249:1 271:1 295:1 
-0.6245432977390036 37:1 69:1 75:1 79:1 103:1 149:1 203:1 245:1 249:1 295:1 
-0.1750410873436195 50:1 54:1 68:1 69:1 75:1 84:1 85:1 87:1 88:1 103:1 106:1 107:1 108:1 109:1 149:1 154:1 156:1 168:1 169:1 170:1 194:1 206:1 208:1 217:1 221:1 222:1 225:1 227:1 233:1 242:1 245:1 248:1 249:1 260:1 261:1 269:1 270:1 272:1 281:1 298:1 299:1 
-0.001065184083846835 37:1 38:1 54:1 69:1 103:1 104:1 106:1 107:1 145:1 149:1 155:1 171:1 203:1 204:1 207:1 208:1 221:1 232:1 235:1 245:1 248:1 261:1 269:1 271:1 272:1 282:1 
-0.3932728031397683 38:1 51:1 76:1 97:1 102:1 115:1 117:1 119:1 204:1 216:1 241:1 248:1 249:1 272:1 
-0.1262351657137577 35:1 45:1 50:1 54:1 70:1 84:1 85:1 97:1 106:1 114:1 115:1 117:1 144:1 146:1 149:1 158:1 164:1 169:1 171:1 206:1 207:1 208:1 225:1 231:1 232:1 235:1 236:1 241:1 244:1 249:1 261:1 272:1 273:1 281:1 298:1 
-3.132585188886442 205:1 281:1 
-0.06617020480232309 35:1 54:1 55:1 68:1 75:1 76:1 78:1 81:1 108:1 117:1 149:1 157:1 169:1 183:1 207:1 223:1 238:1 249:1 250:1 273:1 293:1 295:1 
-1.716344827299682 45:1 54:1 76:1 149:1 161:1 217:1 281:1 
-0.09887611451327975 54:1 68:1 69:1 71:1 81:1 83:1 97:1 115:1 145:1 149:1 164:1 169:1 171:1 208:1 216:1 225:1 231:1 241:1 245:1 272:1 274:1 
-0.1580041078864393 50:1 68:1 70:1 75:1 84:1 97:1 102:1 104:1 117:1 149:1 228:1 231:1 245:1 248:1 271:1 272:1 281:1 
-0.21714195654459 115:1 217:1 
-0.120679840789577 45:1 47:1 50:1 51:1 55:1 57:1 68:1 69:1 70:1 84:1 85:1 108:1 109:1 115:1 117:1 145:1 147:1 148:1 149:1 158:1 193:1 194:1 206:1 207:1 208:1 227:1 231:1 235:1 236:1 241:1 244:1 248:1 252:1 260:1 269:1 271:1 272:1 281:1 295:1 299:1 
-0.05929986076775271 35:1 37:1 50:1 54:1 69:1 75:1 91:1 104:1 106:1 107:1 108:1 117:1 119:1 149:1 169:1 171:1 203:1 223:1 225:1 248:1 250:1 252:1 263:1 271:1 281:1 294:1 
-0.004130733750064853 75:1 170:1 248:1 294:1 298:1 
-0.01091069447869013 35:1 37:1 45:1 47:1 54:1 62:1 69:1 75:1 88:1 104:1 106:1 109:1 117:1 119:1 149:1 156:1 161:1 171:1 194:1 203:1 207:1 217:1 225:1 236:1 241:1 245:1 271:1 294:1 
-0.1962894594506413 35:1 47:1 50:1 68:1 70:1 76:1 98:1 103:1 108:1 117:1 144:1 154:1 169:1 171:1 207:1 208:1 217:1 222:1 231:1 242:1 248:1 260:1 261:1 269:1 280:1 283:1 294:1 298:1 
-0.1307146194265285 35:1 38:1 53:1 54:1 69:1 75:1 81:1 87:1 106:1 149:1 154:1 157:1 168:1 171:1 204:1 206:1 207:1 208:1 217:1 221:1 222:1 225:1 231:1 232:1 236:1 241:1 245:1 248:1 249:1 255:1 261:1 269:1 280:1 283:1 
-0.2442306317181072 35:1 53:1 65:1 68:1 103:1 104:1 115:1 118:1 161:1 170:1 229:1 240:1 248:1 249:1 263:1 271:1 272:1 294:1 295:1 
-0.001402848883708014 35:1 53:1 65:1 68:1 80:1 103:1 104:1 115:1 118:1 161:1 170:1 229:1 240:1 248:1 249:1 263:1 271:1 272:1 281:1 295:1 
-0.1241553535314909 35:1 50:1 53:1 68:1 69:1 72:1 87:1 88:1 107:1 118:1 149:1 161:1 170:1 172:1 183:1 194:1 221:1 228:1 248:1 249:1 260:1 263:1 270:1 281:1 295:1 
-0.0356909932825949 35:1 37:1 68:1 72:1 84:1 87:1 88:1 114:1 115:1 117:1 144:1 146:1 154:1 155:1 170:1 203:1 207:1 217:1 229:1 231:1 232:1 235:1 249:1 252:1 260:1 269:1 272:1 281:1 299:1 
-0.06269918017262975 35:1 37:1 55:1 107:1 115:1 117:1 146:1 203:1 207:1 217:1 223:1 231:1 247:1 260:1 277:1 281:1 298:1 299:1 
-0.5822354095246985 38:1 79:1 80:1 149:1 161:1 204:1 261:1 265:1 
-0.09599971419189206 38:1 62:1 69:1 79:1 80:1 149:1 154:1 204:1 217:1 219:1 250:1 299:1 
-0.0977634558589399 38:1 79:1 80:1 90:1 118:1 204:1 
-0.0750193544329594 37:1 44:1 50:1 62:1 68:1 70:1 75:1 76:1 83:1 115:1 117:1 146:1 148:1 195:1 214:1 218:1 223:1 241:1 260:1 272:1 295:1 
-0.06731956338177626 35:1 44:1 54:1 68:1 76:1 83:1 89:1 106:1 115:1 117:1 218:1 241:1 272:1 
-0.03754151007826462 35:1 44:1 68:1 76:1 108:1 115:1 117:1 149:1 195:1 218:1 241:1 272:1 273:1 295:1 
-3.369112733798827 99:1 218:1 
-0.1807985096492713 68:1 81:1 208:1 223:1 249:1 260:1 
-0.725611112108308 68:1 117:1 148:1 171:1 225:1 281:1 
-0.1368632272846519 37:1 51:1 54:1 57:1 71:1 75:1 79:1 93:1 106:1 107:1 117:1 148:1 161:1 194:1 195:1 203:1 217:1 218:1 223:1 228:1 237:1 260:1 265:1 289:1 295:1 297:1 
-0.4827066557637922 79:1 107:1 118:1 146:1 248:1 
-0.9481372905487991 55:1 76:1 78:1 87:1 207:1 231:1 239:1 252:1 269:1 283:1 298:1 
-0.07781263639255089 81:1 108:1 109:1 207:1 208:1 248:1 281:1 
-0.1255570262628253 35:1 71:1 98:1 104:1 185:1 206:1 207:1 222:1 227:1 281:1 295:1 297:1 298:1 
-0.04058449546538027 35:1 55:1 59:1 71:1 87:1 98:1 101:1 102:1 106:1 109:1 144:1 168:1 171:1 206:1 207:1 223:1 265:1 281:1 295:1 297:1 298:1 299:1 
-2.130490977887502 62:1 161:1 171:1 
-0.3055190374472337 35:1 62:1 68:1 73:1 76:1 99:1 114:1 115:1 117:1 149:1 188:1 205:1 208:1 217:1 218:1 249:1 272:1 294:1 295:1 
-0.2447510368078775 35:1 62:1 68:1 76:1 99:1 114:1 115:1 117:1 217:1 218:1 249:1 272:1 295:1 298:1 299:1 
-0.0460635083753875 35:1 62:1 68:1 76:1 99:1 106:1 108:1 114:1 115:1 117:1 168:1 217:1 218:1 263:1 272:1 295:1 
-0.2763201652828519 45:1 53:1 54:1 57:1 59:1 62:1 66:1 68:1 75:1 81:1 87:1 88:1 89:1 93:1 104:1 106:1 108:1 115:1 117:1 118:1 119:1 144:1 148:1 149:1 155:1 156:1 161:1 168:1 170:1 171:1 195:1 207:1 208:1 217:1 218:1 221:1 222:1 223:1 232:1 237:1 240:1 241:1 242:1 244:1 245:1 249:1 250:1 258:1 261:1 265:1 266:1 269:1 271:1 272:1 273:1 277:1 281:1 294:1 295:1 298:1 
-0.03512193186004382 44:1 55:1 59:1 98:1 147:1 170:1 171:1 195:1 206:1 207:1 226:1 281:1 298:1 
-0.2528205290076387 44:1 45:1 53:1 54:1 55:1 57:1 59:1 66:1 69:1 71:1 75:1 76:1 102:1 106:1 109:1 115:1 117:1 144:1 146:1 148:1 149:1 154:1 161:1 164:1 168:1 171:1 193:1 194:1 195:1 196:1 206:1 207:1 208:1 216:1 217:1 218:1 223:1 226:1 227:1 231:1 232:1 235:1 237:1 239:1 247:1 248:1 252:1 260:1 261:1 263:1 265:1 269:1 277:1 281:1 282:1 295:1 298:1 299:1 
-0.2716009942970838 35:1 38:1 54:1 57:1 65:1 68:1 69:1 70:1 72:1 75:1 84:1 88:1 90:1 103:1 104:1 106:1 107:1 108:1 114:1 117:1 146:1 147:1 149:1 164:1 168:1 169:1 170:1 172:1 190:1 195:1 207:1 212:1 217:1 221:1 225:1 228:1 230:1 240:1 242:1 244:1 248:1 249:1 250:1 252:1 255:1 260:1 261:1 263:1 269:1 270:1 271:1 272:1 274:1 277:1 280:1 281:1 294:1 295:1 
-0.02126713943740874 38:1 54:1 57:1 71:1 83:1 85:1 103:1 144:1 171:1 204:1 205:1 206:1 231:1 235:1 236:1 239:1 247:1 248:1 261:1 
-0.05761071401931721 55:1 99:1 106:1 195:1 242:1 280:1 
-0.7479964594583783 41:1 
-3.138684288373923 171:1 208:1 
-0.1699573677690019 38:1 45:1 68:1 72:1 75:1 78:1 87:1 107:1 108:1 117:1 157:1 165:1 171:1 172:1 205:1 206:1 207:1 208:1 216:1 225:1 231:1 249:1 255:1 260:1 261:1 270:1 271:1 294:1 298:1 
-0.0923860418714953 50:1 54:1 68:1 88:1 106:1 149:1 158:1 168:1 170:1 171:1 194:1 196:1 207:1 217:1 223:1 227:1 230:1 247:1 252:1 260:1 270:1 281:1 299:1 
-0.1272237880876291 38:1 47:1 54:1 57:1 68:1 71:1 87:1 108:1 115:1 117:1 144:1 145:1 146:1 147:1 149:1 154:1 158:1 168:1 171:1 196:1 204:1 206:1 207:1 208:1 226:1 232:1 245:1 248:1 249:1 260:1 261:1 269:1 280:1 281:1 282:1 295:1 298:1 299:1 
-0.276884155517226 37:1 38:1 45:1 47:1 50:1 54:1 57:1 59:1 68:1 70:1 72:1 75:1 78:1 79:1 81:1 84:1 85:1 88:1 97:1 102:1 103:1 104:1 106:1 107:1 108:1 109:1 114:1 115:1 117:1 144:1 145:1 147:1 148:1 149:1 154:1 155:1 156:1 157:1 158:1 161:1 164:1 165:1 168:1 169:1 170:1 171:1 172:1 193:1 194:1 203:1 204:1 205:1 206:1 207:1 208:1 216:1 217:1 218:1 221:1 223:1 226:1 227:1 228:1 229:1 230:1 231:1 232:1 235:1 236:1 239:1 240:1 242:1 244:1 245:1 247:1 248:1 249:1 250:1 252:1 253:1 260:1 261:1 269:1 270:1 271:1 272:1 281:1 282:1 294:1 298:1 299:1 
-0.2758263007824596 75:1 76:1 148:1 149:1 217:1 244:1 248:1 277:1 280:1 281:1 
-0.1097218689298129 35:1 37:1 38:1 68:1 76:1 80:1 88:1 103:1 108:1 111:1 168:1 203:1 204:1 248:1 249:1 281:1 
-0.07914721461784149 55:1 57:1 75:1 78:1 81:1 98:1 102:1 106:1 109:1 117:1 144:1 154:1 193:1 206:1 207:1 222:1 223:1 226:1 232:1 240:1 247:1 250:1 252:1 263:1 282:1 294:1 298:1 299:1 
-1.280233139048908 48:1 57:1 62:1 68:1 72:1 76:1 93:1 94:1 95:1 115:1 117:1 149:1 168:1 244:1 263:1 
-0.003233803029420903 55:1 68:1 91:1 97:1 115:1 147:1 156:1 157:1 169:1 206:1 207:1 281:1 298:1 299:1 
-1.02418430178668 53:1 55:1 57:1 115:1 277:1 295:1 
-0.0267249615796166 78:1 96:1 106:1 117:1 167:1 207:1 212:1 216:1 233:1 257:1 277:1 281:1 
-0.6498058995622618 80:1 149:1 168:1 171:1 173:1 205:1 207:1 219:1 223:1 247:1 281:1 299:1 
-0.7187187611552567 55:1 79:1 103:1 108:1 147:1 217:1 
-0.008236230576322483 1:1 2:1 5:1 6:1 10:1 11:1 12:1 16:1 19:1 20:1 21:1 24:1 28:1 29:1 31:1 34:1 
-0.01647045855160535 7:1 8:1 18:1 19:1 22:1 24:1 27:1 32:1 
-0.01819223567001663 1:1 3:1 4:1 11:1 13:1 14:1 16:1 17:1 18:1 19:1 20:1 22:1 25:1 26:1 27:1 
-0.01829092632272419 3:1 5:1 7:1 8:1 13:1 14:1 17:1 18:1 19:1 20:1 22:1 27:1 29:1 31:1 32:1 33:1 
-0.005553174784088501 2:1 3:1 8:1 14:1 18:1 23:1 
-0.002745465506328779 3:1 5:1 6:1 10:1 11:1 17:1 22:1 23:1 24:1 
-0.01910493316357848 1:1 2:1 3:1 16:1 17:1 18:1 21:1 30:1 31:1 
-0.02354953198471316 1:1 2:1 3:1 4:1 5:1 6:1 7:1 8:1 11:1 12:1 13:1 14:1 15:1 16:1 17:1 18:1 19:1 20:1 22:1 23:1 24:1 25:1 26:1 29:1 30:1 31:1 32:1 33:1 
-0.0116421886661868 3:1 5:1 6:1 7:1 8:1 10:1 12:1 13:1 16:1 17:1 18:1 19:1 20:1 24:1 25:1 30:1 31:1 33:1 34:1 
-0.01138496048522989 3:1 6:1 17:1 18:1 26:1 30:1 34:1 
-0.0442681041392157 1:1 5:1 6:1 9:1 10:1 12:1 13:1 14:1 15:1 18:1 20:1 21:1 23:1 24:1 27:1 28:1 
-0.007420530419828795 1:1 3:1 5:1 7:1 9:1 10:1 14:1 15:1 18:1 19:1 21:1 23:1 24:1 28:1 33:1 
-0.003008324098948754 1:1 5:1 7:1 8:1 9:1 10:1 13:1 14:1 16:1 18:1 19:1 20:1 21:1 23:1 24:1 25:1 26:1 28:1 29:1 31:1 32:1 33:1 34:1 
-0.02456032188614228 1:1 3:1 4:1 5:1 9:1 10:1 12:1 13:1 14:1 21:1 23:1 24:1 28:1 30:1 32:1 34:1 
-0.009411036669978166 5:1 7:1 8:1 12:1 13:1 14:1 16:1 19:1 20:1 21:1 22:1 23:1 24:1 30:1 
-0.001348055292690655 7:1 12:1 13:1 14:1 19:1 20:1 21:1 22:1 23:1 24:1 25:1 26:1 
-0.04259362745645035 3:1 5:1 6:1 8:1 9:1 11:1 15:1 16:1 17:1 22:1 24:1 25:1 29:1 30:1 31:1 
-0.03287754039208835 1:1 3:1 4:1 5:1 8:1 9:1 10:1 11:1 13:1 16:1 17:1 18:1 20:1 21:1 23:1 24:1 28:1 30:1 31:1 32:1 33:1 34:1 
-0.008812023653058318 4:1 20:1 21:1 25:1 26:1 30:1 33:1 
-0.04171706888863239 2:1 3:1 4:1 7:1 9:1 10:1 13:1 14:1 15:1 16:1 18:1 19:1 21:1 22:1 24:1 25:1 26:1 27:1 29:1 30:1 32:1 33:1 
-0.007471014162707601 2:1 5:1 6:1 9:1 13:1 16:1 18:1 19:1 20:1 25:1 26:1 28:1 30:1 31:1 32:1 
-0.005934132252094061 1:1 7:1 10:1 15:1 16:1 19:1 22:1 25:1 31:1 33:1 
-0.02181194987247102 2:1 3:1 4:1 7:1 8:1 10:1 13:1 14:1 16:1 17:1 20:1 24:1 28:1 30:1 
-0.02768047729785326 1:1 4:1 7:1 9:1 10:1 11:1 12:1 13:1 14:1 15:1 16:1 18:1 19:1 21:1 24:1 25:1 28:1 29:1 30:1 31:1 32:1 33:1 34:1 
-0.01193158843449768 1:1 
-0.01567041236908883 4:1 7:1 20:1 22:1 24:1 25:1 33:1 34:1 
-0.0009357820697022062 3:1 6:1 9:1 17:1 22:1 
-0.007497254045744348 2:1 6:1 12:1 14:1 16:1 23:1 26:1 33:1 
-0.001081041733744818 1:1 2:1 3:1 15:1 24:1 26:1 
-0.003122468895757192 2:1 4:1 5:1 7:1 9:1 10:1 12:1 15:1 16:1 18:1 19:1 20:1 25:1 26:1 33:1 34:1 
-0.004566553210474801 4:1 7:1 8:1 10:1 13:1 19:1 23:1 31:1 33:1 34:1 
-0.01545521202905677 2:1 4:1 5:1 7:1 9:1 13:1 16:1 19:1 20:1 22:1 23:1 25:1 26:1 31:1 32:1 34:1 
-0.001758136849471394 14:1 22:1 23:1 
-0.008679557984976665 8:1 12:1 14:1 18:1 19:1 20:1 23:1 25:1 26:1 27:1 28:1 32:1 34:1 
-0.01760224591150083 4:1 10:1 11:1 12:1 15:1 18:1 20:1 26:1 27:1 31:1 32:1 33:1 34:1 
-0.004328458738518132 1:1 4:1 7:1 8:1 10:1 11:1 15:1 16:1 19:1 20:1 21:1 23:1 24:1 27:1 28:1 29:1 30:1 32:1 33:1 
-0.003514388076430853 4:1 19:1 26:1 27:1 29:1 31:1 
-0.02469257572740122 2:1 3:1 5:1 6:1 11:1 12:1 14:1 21:1 27:1 33:1 
-0.001794340476863869 3:1 10:1 11:1 15:1 17:1 19:1 20:1 21:1 24:1 26:1 28:1 29:1 32:1 33:1 34:1 
-0.02382018742937157 1:1 3:1 6:1 7:1 8:1 10:1 17:1 21:1 23:1 29:1 32:1 34:1 
-0.004881355580055256 3:1 4:1 6:1 7:1 9:1 10:1 11:1 15:1 17:1 19:1 20:1 21:1 23:1 28:1 32:1 34:1 
-0.02096714333007612 2:1 3:1 4:1 11:1 14:1 15:1 16:1 17:1 20:1 22:1 25:1 27:1 33:1 
-0.02420869579141164 1:1 4:1 8:1 11:1 19:1 21:1 25:1 28:1 29:1 30:1 
-0.009681140956219648 3:1 4:1 7:1 8:1 11:1 15:1 22:1 28:1 
-0.001365741769287083 9:1 10:1 16:1 21:1 30:1 31:1 32:1 
-0.010276535493471 4:1 8:1 9:1 10:1 11:1 12:1 13:1 15:1 16:1 19:1 20:1 23:1 25:1 26:1 27:1 28:1 32:1 33:1 34:1 
-0.01271007817922447 3:1 8:1 11:1 12:1 13:1 15:1 16:1 17:1 18:1 19:1 26:1 28:1 29:1 31:1 32:1 33:1 34:1 
-0.00349783296588798 4:1 7:1 8:1 9:1 10:1 12:1 13:1 14:1 15:1 16:1 18:1 19:1 20:1 22:1 25:1 26:1 27:1 28:1 29:1 30:1 31:1 32:1 33:1 34:1 
-0.004941618064907095 1:1 6:1 9:1 10:1 16:1 20:1 21:1 23:1 24:1 29:1 30:1 32:1 34:1 
-0.01452781320164534 1:1 5:1 7:1 11:1 18:1 19:1 20:1 21:1 22:1 23:1 24:1 25:1 26:1 29:1 30:1 31:1 32:1 33:1 
-0.02493110213079098 2:1 9:1 14:1 27:1 28:1 34:1 
-0.01385107005831325 5:1 7:1 8:1 10:1 12:1 13:1 14:1 15:1 18:1 19:1 20:1 22:1 23:1 25:1 26:1 27:1 29:1 30:1 31:1 32:1 33:1 34:1 
-0.04433214191036443 3:1 4:1 6:1 7:1 8:1 9:1 12:1 13:1 14:1 16:1 17:1 18:1 22:1 23:1 26:1 27:1 29:1 31:1 34:1 
-0.0165499754460407 2:1 4:1 6:1 7:1 8:1 12:1 13:1 15:1 16:1 18:1 19:1 20:1 22:1 25:1 27:1 29:1 31:1 33:1 34:1 
-0.005839235702851725 5:1 7:1 8:1 9:1 10:1 11:1 12:1 13:1 14:1 16:1 18:1 19:1 20:1 23:1 24:1 25:1 26:1 27:1 28:1 29:1 30:1 32:1 34:1 
-0.02241854931458623 1:1 2:1 5:1 7:1 8:1 9:1 10:1 14:1 16:1 19:1 20:1 23:1 24:1 26:1 28:1 30:1 31:1 33:1 34:1 
-0.0135235329546101 5:1 8:1 9:1 10:1 11:1 12:1 14:1 16:1 18:1 19:1 23:1 24:1 26:1 29:1 30:1 
-0.005422011165666197 5:1 7:1 8:1 9:1 10:1 14:1 16:1 23:1 24:1 27:1 30:1 
-0.01296958664582064 1:1 4:1 5:1 7:1 8:1 9:1 10:1 11:1 13:1 15:1 16:1 19:1 23:1 24:1 25:1 28:1 30:1 32:1 34:1 
-0.02218235911223788 8:1 9:1 11:1 22:1 23:1 30:1 34:1 
-0.01343363270132117 5:1 7:1 8:1 9:1 11:1 12:1 14:1 15:1 16:1 18:1 19:1 20:1 21:1 23:1 25:1 26:1 28:1 29:1 32:1 
-0.00119625107128303 16:1 22:1 27:1 33:1 34:1 
-0.01035398995750694 5:1 7:1 8:1 10:1 13:1 14:1 18:1 19:1 20:1 22:1 24:1 25:1 26:1 27:1 31:1 33:1 34:1 
-0.01340502068170824 8:1 10:1 11:1 12:1 13:1 18:1 19:1 20:1 21:1 22:1 23:1 24:1 25:1 26:1 28:1 29:1 31:1 32:1 
-0.0009803301083761821 7:1 8:1 10:1 12:1 14:1 15:1 16:1 19:1 20:1 21:1 22:1 23:1 24:1 25:1 29:1 31:1 
-0.01304744481815645 7:1 13:1 21:1 33:1 
-0.006475556675031559 5:1 6:1 7:1 15:1 
-0.00516738867425504 4:1 5:1 14:1 
-0.01300109648386157 2:1 6:1 8:1 15:1 16:1 18:1 19:1 20:1 25:1 27:1 30:1 31:1 32:1 
-0.007052193177925504 8:1 10:1 14:1 15:1 16:1 21:1 23:1 26:1 28:1 
-0.01617662340885798 1:1 3:1 4:1 5:1 6:1 10:1 17:1 20:1 22:1 28:1 34:1 
-0.02826583497112815 1:1 3:1 5:1 6:1 10:1 12:1 17:1 18:1 25:1 26:1 31:1 32:1 34:1 
-0.006529844296436911 1:1 3:1 4:1 5:1 6:1 7:1 8:1 10:1 12:1 13:1 14:1 15:1 16:1 18:1 19:1 20:1 21:1 22:1 25:1 26:1 27:1 28:1 31:1 32:1 33:1 34:1 
-0.004217207519961744 9:1 
-0.006344272983731422 13:1 15:1 19:1 21:1 29:1 31:1 32:1 
-0.01341256824397947 1:1 2:1 4:1 6:1 9:1 10:1 11:1 12:1 15:1 16:1 19:1 20:1 21:1 23:1 28:1 32:1 33:1 
-0.01731064927800636 1:1 2:1 3:1 4:1 5:1 6:1 7:1 10:1 11:1 12:1 15:1 16:1 17:1 18:1 19:1 20:1 21:1 22:1 23:1 24:1 25:1 26:1 27:1 28:1 29:1 30:1 31:1 32:1 33:1 34:1 
-0.02324962315894724 1:1 2:1 3:1 4:1 6:1 7:1 10:1 11:1 12:1 14:1 15:1 16:1 17:1 18:1 19:1 20:1 21:1 22:1 23:1 26:1 27:1 28:1 31:1 32:1 33:1 34:1 
-0.02694764101093928 1:1 2:1 3:1 4:1 5:1 6:1 7:1 8:1 9:1 10:1 11:1 12:1 13:1 14:1 15:1 16:1 17:1 18:1 19:1 20:1 21:1 22:1 23:1 24:1 26:1 27:1 28:1 29:1 30:1 31:1 32:1 33:1 34:1 
-0.01612195261927802 3:1 5:1 6:1 7:1 11:1 12:1 13:1 14:1 16:1 17:1 19:1 20:1 21:1 22:1 23:1 25:1 26:1 27:1 31:1 33:1 
-0.02969572355717212 1:1 2:1 10:1 11:1 12:1 14:1 15:1 20:1 21:1 23:1 25:1 26:1 30:1 33:1 
-0.01004355854602691 1:1 5:1 16:1 20:1 21:1 24:1 26:1 27:1 28:1 
-0.001224997021537867 11:1 12:1 16:1 20:1 21:1 22:1 29:1 30:1 31:1 
-0.01857966106499332 3:1 4:1 5:1 7:1 9:1 10:1 11:1 19:1 21:1 22:1 23:1 24:1 27:1 29:1 33:1 
-0.02330793567580674 1:1 2:1 3:1 4:1 5:1 7:1 9:1 10:1 15:1 16:1 17:1 23:1 28:1 29:1 30:1 34:1 
-0.003236883354689718 14:1 21:1 22:1 
-0.02544548252943019 3:1 4:1 6:1 7:1 8:1 9:1 10:1 11:1 13:1 16:1 17:1 20:1 24:1 25:1 26:1 28:1 32:1 
-0.001177273889470434 5:1 12:1 13:1 15:1 16:1 18:1 20:1 21:1 25:1 31:1 33:1 
-0.008511258585277567 3:1 5:1 8:1 13:1 15:1 16:1 17:1 18:1 19:1 20:1 22:1 25:1 27:1 29:1 32:1 34:1 
-0.005943496266118814 15:1 16:1 19:1 21:1 22:1 23:1 24:1 29:1 30:1 32:1 33:1 
-0.01581908628135659 1:1 7:1 11:1 18:1 20:1 23:1 24:1 29:1 30:1 31:1 33:1 
-0.0150700874409797 2:1 3:1 7:1 9:1 10:1 11:1 12:1 13:1 16:1 19:1 20:1 21:1 25:1 27:1 28:1 29:1 31:1 32:1 33:1 34:1 
-0.0007722954574579153 1:1 5:1 8:1 16:1 21:1 24:1 34:1 
-0.01540310479571824 3:1 9:1 10:1 15:1 17:1 19:1 20:1 22:1 23:1 26:1 27:1 28:1 29:1 31:1 34:1 
-0.007392331461527412 3:1 6:1 12:1 17:1 18:1 19:1 23:1 25:1 29:1 31:1 
-0.1147431359029537 148:1 161:1 207:1 217:1 221:1 225:1 
-0.0155884809262425 208:1 221:1 235:1 247:1 261:1 269:1 
-0.1439083438794886 37:1 38:1 47:1 55:1 75:1 78:1 91:1 99:1 144:1 146:1 148:1 154:1 155:1 157:1 161:1 164:1 165:1 169:1 171:1 194:1 203:1 205:1 206:1 207:1 208:1 217:1 223:1 226:1 242:1 250:1 252:1 260:1 261:1 280:1 282:1 294:1 299:1 
-0.1471853588330325 35:1 55:1 75:1 76:1 78:1 79:1 88:1 91:1 117:1 154:1 157:1 158:1 164:1 165:1 169:1 171:1 195:1 206:1 207:1 208:1 217:1 221:1 232:1 235:1 247:1 252:1 261:1 281:1 282:1 294:1 
-0.4075146827149954 55:1 57:1 62:1 69:1 87:1 102:1 109:1 149:1 169:1 171:1 205:1 207:1 208:1 225:1 245:1 247:1 250:1 251:1 274:1 
-0.4362843582393591 53:1 62:1 106:1 117:1 
-0.02676699486514445 38:1 47:1 59:1 62:1 72:1 78:1 81:1 97:1 102:1 108:1 109:1 114:1 158:1 172:1 204:1 206:1 207:1 227:1 232:1 240:1 248:1 276:1 281:1 298:1 299:1 
-0.01813903277764328 55:1 59:1 62:1 75:1 78:1 84:1 90:1 97:1 106:1 107:1 115:1 117:1 149:1 156:1 161:1 170:1 206:1 207:1 208:1 225:1 226:1 227:1 231:1 260:1 261:1 281:1 295:1 
-1.644607966323798 39:1 57:1 98:1 117:1 190:1 216:1 247:1 263:1 299:1 
-0.04829783504279173 37:1 38:1 44:1 51:1 53:1 55:1 57:1 62:1 68:1 72:1 75:1 78:1 80:1 81:1 88:1 102:1 109:1 117:1 144:1 154:1 156:1 158:1 164:1 171:1 206:1 207:1 208:1 226:1 228:1 235:1 252:1 281:1 293:1 299:1 
-0.2682176694245194 37:1 55:1 62:1 69:1 76:1 78:1 91:1 102:1 144:1 157:1 158:1 164:1 171:1 188:1 206:1 207:1 221:1 225:1 226:1 231:1 249:1 252:1 272:1 281:1 294:1 298:1 299:1 
-0.07950700584589299 47:1 55:1 59:1 68:1 69:1 75:1 97:1 101:1 102:1 106:1 109:1 114:1 115:1 117:1 164:1 165:1 169:1 171:1 172:1 206:1 207:1 212:1 227:1 248:1 249:1 265:1 283:1 298:1 299:1 
-0.1850106913516083 35:1 87:1 89:1 205:1 225:1 241:1 
-1.076072431115815 212:1 
-0.2082895628390689 37:1 47:1 55:1 57:1 59:1 68:1 69:1 83:1 89:1 97:1 102:1 105:1 107:1 109:1 117:1 118:1 144:1 161:1 164:1 165:1 171:1 193:1 197:1 203:1 206:1 207:1 216:1 217:1 222:1 223:1 247:1 250:1 263:1 269:1 277:1 281:1 282:1 298:1 299:1 
-0.1127381042834485 35:1 87:1 90:1 107:1 115:1 117:1 149:1 217:1 229:1 242:1 248:1 249:1 260:1 263:1 277:1 295:1 
-0.4872914032903317 35:1 54:1 96:1 106:1 117:1 167:1 207:1 212:1 216:1 225:1 233:1 257:1 277:1 281:1 
-3.665456095416303 105:1 117:1 263:1 
-0.03251559723892377 228:1 
-0.08453012515483646 47:1 50:1 53:1 70:1 81:1 90:1 102:1 109:1 115:1 117:1 146:1 149:1 157:1 168:1 206:1 221:1 223:1 230:1 235:1 250:1 277:1 281:1 295:1 297:1 
-0.09799528694681393 45:1 48:1 55:1 57:1 106:1 168:1 207:1 216:1 223:1 258:1 263:1 295:1 
-9.171576778175837 217:1 263:1 
-6.796478782753851 207:1 263:1 
-0.5715600879756678 53:1 54:1 68:1 79:1 98:1 109:1 117:1 149:1 155:1 206:1 208:1 216:1 217:1 229:1 245:1 247:1 250:1 263:1 277:1 293:1 295:1 298:1 
-0.3522341419036533 38:1 62:1 97:1 204:1 222:1 265:1 276:1 281:1 
-0.02472431064717593 35:1 37:1 38:1 47:1 59:1 62:1 91:1 114:1 115:1 170:1 203:1 204:1 265:1 282:1 
-3.680792669584408 62:1 265:1 295:1 
-0.04163872606617158 277:1 
-0.7163445914721127 55:1 59:1 244:1 265:1 
-0.6361635730138587 69:1 76:1 78:1 109:1 115:1 171:1 194:1 206:1 207:1 223:1 242:1 299:1 
-0.7628374738211812 106:1 109:1 205:1 212:1 265:1 
-0.1748174228754194 55:1 57:1 65:1 68:1 70:1 79:1 80:1 102:1 106:1 109:1 117:1 118:1 119:1 169:1 205:1 206:1 207:1 208:1 216:1 221:1 223:1 225:1 247:1 248:1 277:1 281:1 282:1 295:1 299:1 
-0.5296537360420397 38:1 53:1 56:1 117:1 168:1 204:1 217:1 242:1 
-1.086583898941886 56:1 117:1 168:1 
-0.1762017713793447 98:1 115:1 168:1 217:1 263:1 277:1 
-0.08514397399529086 293:1 
-0.05685840411671369 38:1 204:1 293:1 
-0.1064924640049805 35:1 47:1 55:1 57:1 75:1 83:1 109:1 115:1 117:1 118:1 119:1 206:1 207:1 222:1 223:1 240:1 247:1 250:1 252:1 261:1 263:1 281:1 282:1 293:1 298:1 299:1 
-0.5791406024263397 55:1 217:1 293:1 
-0.0846764180000365 57:1 84:1 85:1 115:1 146:1 171:1 196:1 205:1 216:1 222:1 224:1 236:1 282:1 
-3.679033408596864 62:1 263:1 
-0.05581623740717259 35:1 36:1 44:1 51:1 53:1 54:1 79:1 81:1 90:1 106:1 108:1 148:1 149:1 161:1 171:1 195:1 207:1 218:1 227:1 228:1 229:1 231:1 242:1 247:1 249:1 250:1 282:1 295:1 
-0.2664188522690959 35:1 45:1 50:1 53:1 54:1 55:1 57:1 59:1 65:1 71:1 76:1 80:1 87:1 88:1 91:1 97:1 106:1 107:1 109:1 115:1 117:1 148:1 149:1 154:1 155:1 158:1 161:1 164:1 165:1 169:1 171:1 205:1 206:1 207:1 208:1 216:1 217:1 218:1 221:1 224:1 226:1 228:1 229:1 230:1 231:1 232:1 235:1 237:1 240:1 247:1 248:1 250:1 252:1 260:1 261:1 269:1 270:1 272:1 277:1 280:1 281:1 282:1 295:1 298:1 299:1 
-0.2427723165344714 102:1 
-0.195103869318947 117:1 144:1 161:1 247:1 299:1 
-0.07598594996839705 54:1 55:1 57:1 75:1 79:1 87:1 88:1 108:1 144:1 145:1 147:1 154:1 157:1 164:1 169:1 171:1 207:1 223:1 238:1 260:1 279:1 281:1 282:1 283:1 299:1 
-1.162383752577848 57:1 207:1 208:1 
-0.002624670892238159 38:1 44:1 53:1 55:1 71:1 90:1 108:1 115:1 148:1 149:1 156:1 161:1 204:1 207:1 217:1 223:1 231:1 261:1 282:1 292:1 295:1 
-0.5383324060396409 47:1 55:1 90:1 106:1 149:1 161:1 168:1 171:1 207:1 245:1 248:1 281:1 
-0.2108748785578088 47:1 161:1 171:1 207:1 
-0.4221755304338016 35:1 85:1 88:1 106:1 109:1 144:1 158:1 205:1 223:1 226:1 231:1 245:1 247:1 281:1 
-0.2960500997627513 57:1 115:1 161:1 281:1 
-0.0723757526037955 35:1 37:1 38:1 55:1 57:1 70:1 73:1 107:1 117:1 203:1 204:1 206:1 223:1 238:1 250:1 277:1 
-0.1563743403852544 38:1 204:1 
-0.04807420690274132 37:1 54:1 161:1 169:1 203:1 229:1 238:1 261:1 
-0.01837419906231039 102:1 205:1 217:1 281:1 295:1 
-0.5185211615838449 36:1 
-0.01477236805949969 47:1 57:1 62:1 70:1 78:1 81:1 97:1 107:1 109:1 115:1 117:1 156:1 161:1 205:1 206:1 207:1 247:1 250:1 269:1 273:1 277:1 281:1 282:1 299:1 
-4.388635235912773 96:1 167:1 212:1 225:1 233:1 257:1 277:1 281:1 
-0.0776634488439041 50:1 54:1 55:1 90:1 104:1 106:1 114:1 115:1 117:1 144:1 145:1 147:1 149:1 171:1 172:1 206:1 207:1 217:1 222:1 227:1 228:1 235:1 240:1 260:1 281:1 282:1 283:1 293:1 298:1 
-0.02250482286416223 35:1 44:1 47:1 50:1 55:1 57:1 59:1 101:1 106:1 109:1 114:1 115:1 117:1 154:1 157:1 171:1 172:1 206:1 207:1 217:1 239:1 281:1 282:1 293:1 298:1 299:1 
-0.1487413137293998 171:1 208:1 229:1 
-1.724614738387945 35:1 149:1 245:1 280:1 
-0.07490120778284115 37:1 53:1 70:1 117:1 146:1 216:1 238:1 281:1 
-0.0566389896309874 47:1 50:1 55:1 57:1 59:1 72:1 78:1 102:1 106:1 107:1 114:1 115:1 117:1 144:1 154:1 157:1 158:1 169:1 170:1 171:1 172:1 194:1 206:1 207:1 216:1 217:1 222:1 223:1 231:1 232:1 240:1 250:1 261:1 270:1 272:1 298:1 299:1 
-0.132337010884491 38:1 45:1 50:1 55:1 78:1 90:1 91:1 114:1 147:1 157:1 193:1 206:1 207:1 228:1 242:1 248:1 261:1 282:1 294:1 298:1 
-0.2276783577581158 102:1 109:1 207:1 265:1 270:1 
-0.07670329482784861 35:1 54:1 55:1 57:1 59:1 68:1 102:1 104:1 108:1 109:1 114:1 115:1 117:1 145:1 154:1 155:1 156:1 157:1 158:1 164:1 171:1 194:1 206:1 207:1 208:1 209:1 222:1 225:1 226:1 227:1 229:1 252:1 260:1 261:1 270:1 281:1 282:1 283:1 295:1 298:1 299:1 
-0.1407541801786928 37:1 38:1 51:1 54:1 55:1 57:1 62:1 81:1 90:1 102:1 106:1 107:1 108:1 109:1 114:1 115:1 117:1 149:1 155:1 157:1 168:1 171:1 172:1 194:1 195:1 203:1 204:1 206:1 207:1 209:1 216:1 217:1 218:1 223:1 229:1 235:1 240:1 248:1 252:1 261:1 265:1 281:1 295:1 299:1 
-0.02975707964236139 54:1 55:1 57:1 97:1 109:1 115:1 145:1 154:1 157:1 164:1 165:1 168:1 169:1 171:1 172:1 206:1 207:1 245:1 270:1 283:1 298:1 299:1 
-0.08769622161882176 55:1 57:1 59:1 101:1 102:1 108:1 109:1 114:1 117:1 145:1 147:1 149:1 156:1 157:1 158:1 164:1 168:1 171:1 194:1 207:1 208:1 209:1 221:1 229:1 235:1 244:1 245:1 250:1 252:1 265:1 270:1 294:1 298:1 299:1 
-0.1157267851003755 35:1 37:1 50:1 54:1 55:1 57:1 68:1 69:1 72:1 75:1 81:1 89:1 90:1 97:1 101:1 102:1 106:1 107:1 108:1 109:1 114:1 117:1 118:1 119:1 149:1 155:1 164:1 168:1 171:1 206:1 207:1 209:1 217:1 221:1 248:1 249:1 252:1 270:1 281:1 282:1 294:1 298:1 
-0.09735117324469919 35:1 75:1 79:1 109:1 114:1 265:1 
-0.04815173264239556 51:1 54:1 62:1 68:1 69:1 71:1 81:1 88:1 104:1 107:1 108:1 109:1 114:1 117:1 144:1 156:1 157:1 161:1 171:1 172:1 206:1 207:1 208:1 216:1 217:1 221:1 222:1 223:1 226:1 240:1 248:1 261:1 263:1 270:1 277:1 282:1 
-0.2267455069711946 55:1 117:1 157:1 217:1 223:1 269:1 
-0.1292854019121097 54:1 72:1 88:1 108:1 115:1 144:1 149:1 172:1 207:1 223:1 227:1 244:1 245:1 295:1 
-0.1661281024808977 38:1 45:1 47:1 54:1 55:1 59:1 72:1 79:1 88:1 91:1 97:1 109:1 115:1 117:1 145:1 149:1 154:1 156:1 158:1 165:1 168:1 169:1 171:1 172:1 193:1 204:1 206:1 207:1 208:1 217:1 225:1 227:1 231:1 232:1 235:1 236:1 240:1 248:1 261:1 269:1 270:1 272:1 281:1 282:1 283:1 298:1 299:1 
-0.005932009024657932 38:1 59:1 72:1 79:1 84:1 107:1 114:1 117:1 144:1 149:1 168:1 169:1 204:1 206:1 207:1 217:1 221:1 239:1 240:1 248:1 249:1 260:1 269:1 282:1 298:1 299:1 
-0.2235977420345795 35:1 47:1 51:1 54:1 55:1 57:1 62:1 68:1 90:1 101:1 102:1 104:1 106:1 107:1 108:1 109:1 114:1 115:1 119:1 146:1 147:1 148:1 149:1 154:1 156:1 157:1 161:1 164:1 165:1 168:1 171:1 195:1 207:1 208:1 209:1 216:1 217:1 218:1 222:1 227:1 228:1 229:1 231:1 236:1 242:1 245:1 249:1 252:1 260:1 265:1 270:1 272:1 281:1 283:1 295:1 299:1 
-0.09408399245220506 35:1 37:1 38:1 47:1 54:1 55:1 57:1 69:1 72:1 76:1 81:1 101:1 107:1 114:1 115:1 117:1 144:1 145:1 149:1 157:1 158:1 164:1 168:1 169:1 171:1 172:1 193:1 203:1 206:1 207:1 217:1 222:1 226:1 227:1 231:1 240:1 242:1 252:1 260:1 261:1 280:1 281:1 282:1 283:1 
-0.112471680582292 38:1 47:1 55:1 72:1 76:1 99:1 101:1 104:1 107:1 114:1 117:1 145:1 149:1 157:1 165:1 171:1 172:1 204:1 206:1 207:1 217:1 222:1 228:1 242:1 250:1 252:1 260:1 270:1 280:1 281:1 298:1 
-0.08934335600958507 45:1 47:1 54:1 55:1 57:1 59:1 69:1 72:1 90:1 101:1 107:1 114:1 115:1 117:1 149:1 156:1 161:1 164:1 169:1 170:1 171:1 172:1 206:1 207:1 217:1 222:1 226:1 227:1 242:1 245:1 247:1 250:1 252:1 260:1 269:1 270:1 280:1 282:1 298:1 
-0.2420474900571789 38:1 55:1 75:1 76:1 114:1 117:1 147:1 149:1 169:1 194:1 217:1 249:1 260:1 295:1 
-0.06506844139067707 35:1 44:1 45:1 54:1 57:1 71:1 90:1 106:1 108:1 109:1 115:1 117:1 148:1 149:1 171:1 195:1 196:1 217:1 218:1 223:1 224:1 245:1 265:1 281:1 295:1 299:1 
-0.150057491591034 72:1 85:1 88:1 102:1 108:1 114:1 115:1 117:1 149:1 155:1 170:1 171:1 172:1 194:1 196:1 206:1 207:1 208:1 216:1 223:1 227:1 231:1 232:1 236:1 240:1 245:1 248:1 249:1 261:1 270:1 282:1 299:1 
-0.05560087024524317 35:1 37:1 55:1 59:1 68:1 72:1 85:1 88:1 102:1 109:1 114:1 155:1 169:1 171:1 172:1 194:1 196:1 203:1 206:1 207:1 208:1 226:1 228:1 231:1 248:1 249:1 261:1 299:1 
-0.4111632606241976 88:1 114:1 117:1 217:1 225:1 233:1 281:1 295:1 
-0.1801737688594517 38:1 54:1 55:1 59:1 75:1 78:1 80:1 81:1 101:1 102:1 104:1 106:1 109:1 114:1 115:1 144:1 145:1 147:1 149:1 154:1 157:1 158:1 164:1 165:1 171:1 172:1 193:1 194:1 207:1 208:1 209:1 216:1 221:1 222:1 226:1 228:1 229:1 232:1 236:1 239:1 240:1 244:1 248:1 249:1 250:1 269:1 281:1 282:1 294:1 298:1 
-0.2316298574383547 35:1 37:1 38:1 45:1 50:1 51:1 54:1 57:1 59:1 62:1 68:1 69:1 70:1 72:1 75:1 87:1 88:1 90:1 107:1 108:1 114:1 117:1 118:1 144:1 147:1 149:1 154:1 158:1 169:1 170:1 171:1 172:1 194:1 203:1 204:1 205:1 206:1 207:1 208:1 216:1 217:1 221:1 223:1 227:1 230:1 231:1 232:1 235:1 240:1 241:1 242:1 244:1 247:1 248:1 249:1 260:1 261:1 263:1 270:1 281:1 295:1 299:1 
-0.068665165788712 35:1 47:1 54:1 59:1 71:1 107:1 108:1 115:1 117:1 155:1 171:1 206:1 217:1 231:1 240:1 242:1 261:1 283:1 298:1 
-0.05821240734600115 47:1 75:1 78:1 79:1 80:1 83:1 88:1 106:1 114:1 115:1 117:1 144:1 149:1 170:1 171:1 194:1 207:1 208:1 227:1 229:1 235:1 240:1 242:1 249:1 250:1 260:1 270:1 282:1 283:1 299:1 
-0.09605488516453423 35:1 44:1 50:1 55:1 72:1 87:1 88:1 101:1 106:1 108:1 114:1 115:1 146:1 149:1 154:1 161:1 168:1 169:1 170:1 171:1 172:1 193:1 194:1 195:1 207:1 216:1 217:1 222:1 223:1 227:1 229:1 240:1 242:1 260:1 261:1 270:1 280:1 295:1 299:1 
-0.1065103561926142 35:1 37:1 51:1 54:1 55:1 57:1 62:1 79:1 80:1 88:1 97:1 104:1 107:1 108:1 109:1 114:1 146:1 149:1 155:1 161:1 165:1 169:1 171:1 172:1 195:1 203:1 217:1 218:1 223:1 229:1 231:1 232:1 240:1 242:1 248:1 252:1 265:1 281:1 283:1 295:1 
-0.03401637333362364 35:1 38:1 54:1 55:1 62:1 75:1 76:1 108:1 109:1 114:1 115:1 144:1 146:1 147:1 149:1 154:1 161:1 172:1 194:1 195:1 222:1 227:1 229:1 232:1 242:1 249:1 260:1 270:1 295:1 
-0.06851854382506413 35:1 91:1 106:1 115:1 117:1 205:1 206:1 261:1 281:1 283:1 
-0.4367237902170941 41:1 48:1 68:1 76:1 78:1 81:1 114:1 115:1 117:1 144:1 149:1 155:1 172:1 217:1 223:1 227:1 229:1 230:1 231:1 247:1 258:1 263:1 277:1 281:1 282:1 
-0.1132906075659061 37:1 54:1 57:1 59:1 62:1 72:1 101:1 104:1 106:1 108:1 109:1 114:1 115:1 144:1 148:1 149:1 156:1 157:1 161:1 164:1 168:1 171:1 193:1 194:1 195:1 206:1 207:1 209:1 222:1 223:1 228:1 229:1 239:1 248:1 249:1 260:1 280:1 283:1 
-0.1073078875466545 35:1 51:1 55:1 57:1 69:1 72:1 78:1 97:1 102:1 104:1 107:1 114:1 115:1 117:1 144:1 147:1 149:1 168:1 171:1 172:1 194:1 195:1 206:1 207:1 208:1 209:1 212:1 216:1 217:1 222:1 226:1 228:1 231:1 240:1 242:1 249:1 270:1 280:1 295:1 299:1 
-0.2750237422942594 35:1 44:1 59:1 75:1 79:1 108:1 109:1 114:1 145:1 154:1 207:1 208:1 222:1 245:1 252:1 281:1 298:1 
-1.841524156267345 247:1 
-0.2444208826722514 247:1 294:1 
-3.950507505990424 282:1 
-0.1997915975937957 54:1 55:1 75:1 76:1 79:1 104:1 107:1 108:1 115:1 117:1 149:1 156:1 171:1 193:1 207:1 221:1 222:1 226:1 231:1 244:1 248:1 249:1 258:1 277:1 283:1 294:1 298:1 
-0.06297474831597996 45:1 47:1 54:1 57:1 68:1 90:1 106:1 108:1 149:1 156:1 158:1 161:1 168:1 171:1 206:1 207:1 208:1 216:1 221:1 222:1 223:1 228:1 229:1 236:1 248:1 249:1 261:1 270:1 280:1 281:1 282:1 295:1 298:1 
-0.5207669532692929 37:1 68:1 102:1 115:1 146:1 190:1 203:1 222:1 250:1 299:1 
-0.1086131735839119 37:1 59:1 72:1 79:1 99:1 114:1 149:1 156:1 171:1 172:1 203:1 206:1 207:1 227:1 240:1 
-0.1722223586142868 35:1 37:1 38:1 47:1 51:1 55:1 57:1 59:1 72:1 79:1 80:1 81:1 87:1 88:1 99:1 106:1 114:1 157:1 165:1 169:1 171:1 172:1 203:1 204:1 206:1 207:1 216:1 217:1 221:1 227:1 228:1 235:1 236:1 240:1 244:1 248:1 252:1 260:1 261:1 269:1 281:1 282:1 298:1 
-0.2334720175189865 35:1 38:1 44:1 47:1 51:1 68:1 69:1 70:1 72:1 76:1 79:1 87:1 88:1 97:1 108:1 114:1 145:1 155:1 157:1 164:1 165:1 170:1 172:1 193:1 204:1 206:1 207:1 216:1 217:1 221:1 225:1 229:1 235:1 236:1 238:1 239:1 240:1 244:1 250:1 260:1 269:1 282:1 298:1 
-0.1502775075844821 35:1 45:1 54:1 72:1 79:1 88:1 97:1 98:1 101:1 106:1 107:1 108:1 115:1 144:1 145:1 147:1 149:1 154:1 156:1 157:1 158:1 164:1 165:1 169:1 170:1 171:1 172:1 193:1 207:1 221:1 225:1 226:1 231:1 235:1 239:1 245:1 250:1 252:1 261:1 281:1 282:1 283:1 294:1 298:1 
-0.1465095928419043 35:1 45:1 47:1 54:1 55:1 59:1 69:1 72:1 75:1 78:1 79:1 88:1 98:1 106:1 107:1 108:1 109:1 144:1 145:1 147:1 149:1 154:1 156:1 157:1 164:1 165:1 169:1 170:1 171:1 172:1 193:1 206:1 207:1 208:1 216:1 222:1 226:1 228:1 229:1 231:1 232:1 235:1 236:1 239:1 244:1 250:1 261:1 269:1 281:1 282:1 283:1 294:1 298:1 
-0.1578394163909948 45:1 47:1 54:1 59:1 76:1 79:1 88:1 101:1 104:1 106:1 108:1 144:1 145:1 146:1 147:1 149:1 156:1 157:1 158:1 164:1 165:1 169:1 170:1 171:1 172:1 195:1 206:1 207:1 208:1 221:1 226:1 229:1 231:1 235:1 239:1 244:1 250:1 252:1 261:1 269:1 281:1 282:1 283:1 293:1 294:1 298:1 
-0.160192645111146 45:1 47:1 50:1 54:1 72:1 79:1 88:1 104:1 108:1 115:1 145:1 149:1 154:1 156:1 157:1 164:1 165:1 169:1 170:1 171:1 206:1 207:1 221:1 223:1 226:1 228:1 229:1 231:1 235:1 239:1 245:1 272:1 273:1 281:1 282:1 283:1 293:1 294:1 
-0.03100574726696127 47:1 54:1 75:1 79:1 102:1 104:1 108:1 109:1 144:1 149:1 156:1 157:1 165:1 169:1 170:1 171:1 193:1 206:1 207:1 226:1 228:1 244:1 252:1 260:1 269:1 281:1 282:1 283:1 298:1 
-0.8739635906480071 81:1 296:1 
-0.2679291918307648 45:1 47:1 50:1 53:1 54:1 68:1 69:1 72:1 73:1 75:1 78:1 81:1 84:1 87:1 88:1 91:1 93:1 103:1 106:1 107:1 108:1 109:1 114:1 115:1 117:1 119:1 147:1 149:1 154:1 156:1 158:1 168:1 169:1 170:1 171:1 193:1 194:1 206:1 207:1 208:1 217:1 221:1 222:1 223:1 225:1 226:1 227:1 229:1 230:1 231:1 232:1 240:1 242:1 244:1 245:1 248:1 249:1 250:1 252:1 255:1 260:1 261:1 270:1 271:1 272:1 281:1 289:1 294:1 295:1 298:1 299:1 
-0.2222982062017271 35:1 47:1 55:1 57:1 59:1 62:1 68:1 69:1 70:1 72:1 75:1 81:1 89:1 97:1 102:1 104:1 105:1 106:1 107:1 108:1 109:1 115:1 117:1 144:1 145:1 148:1 149:1 156:1 157:1 158:1 161:1 164:1 168:1 169:1 171:1 193:1 194:1 195:1 205:1 206:1 207:1 217:1 222:1 223:1 225:1 226:1 227:1 240:1 248:1 250:1 252:1 258:1 260:1 261:1 270:1 277:1 281:1 282:1 293:1 295:1 298:1 299:1 
-0.2790313355682692 50:1 59:1 75:1 115:1 206:1 207:1 208:1 223:1 263:1 
-0.5273077969519611 38:1 99:1 149:1 204:1 217:1 
-0.04383091041884728 38:1 99:1 149:1 204:1 248:1 249:1 
-0.03312860262495431 37:1 38:1 50:1 54:1 59:1 72:1 75:1 88:1 103:1 114:1 115:1 117:1 144:1 149:1 169:1 171:1 196:1 203:1 204:1 217:1 229:1 231:1 232:1 240:1 242:1 249:1 252:1 260:1 281:1 299:1 
-0.1101358824001961 35:1 38:1 55:1 57:1 62:1 68:1 72:1 81:1 90:1 97:1 102:1 104:1 109:1 115:1 117:1 144:1 147:1 156:1 161:1 164:1 169:1 193:1 194:1 204:1 206:1 207:1 208:1 216:1 221:1 222:1 226:1 235:1 245:1 248:1 250:1 252:1 269:1 281:1 282:1 283:1 295:1 299:1 
-0.2319144977346995 35:1 38:1 44:1 55:1 57:1 59:1 69:1 71:1 72:1 80:1 83:1 97:1 103:1 104:1 106:1 107:1 109:1 114:1 115:1 117:1 149:1 154:1 155:1 156:1 158:1 168:1 169:1 171:1 172:1 195:1 204:1 205:1 206:1 207:1 212:1 216:1 218:1 226:1 229:1 231:1 235:1 236:1 240:1 242:1 248:1 249:1 250:1 255:1 265:1 269:1 272:1 277:1 281:1 282:1 294:1 295:1 298:1 299:1 
-0.05314460221126445 44:1 47:1 51:1 54:1 55:1 57:1 59:1 72:1 75:1 78:1 79:1 106:1 107:1 108:1 109:1 114:1 115:1 117:1 144:1 147:1 148:1 149:1 154:1 157:1 168:1 169:1 171:1 172:1 194:1 206:1 207:1 216:1 226:1 227:1 231:1 247:1 281:1 283:1 295:1 298:1 
-0.05564074436592027 55:1 69:1 193:1 208:1 221:1 265:1 
-1.099900111220858 51:1 79:1 161:1 171:1 217:1 
-0.3362738153077698 38:1 90:1 99:1 115:1 117:1 161:1 204:1 217:1 226:1 227:1 
-0.1197369097433998 50:1 117:1 217:1 
-0.02208670761791558 54:1 57:1 109:1 115:1 154:1 165:1 171:1 221:1 235:1 236:1 261:1 265:1 294:1 
-0.01241219886211068 37:1 44:1 50:1 54:1 57:1 62:1 75:1 79:1 85:1 87:1 97:1 106:1 115:1 117:1 149:1 155:1 171:1 194:1 203:1 206:1 207:1 208:1 216:1 223:1 229:1 231:1 232:1 248:1 249:1 250:1 270:1 282:1 295:1 298:1 299:1 
-0.01536740784722338 35:1 44:1 50:1 54:1 55:1 57:1 59:1 72:1 78:1 87:1 97:1 102:1 107:1 109:1 115:1 144:1 171:1 193:1 194:1 206:1 207:1 223:1 227:1 252:1 260:1 261:1 283:1 294:1 298:1 
-0.3634079522868199 37:1 97:1 99:1 104:1 106:1 206:1 233:1 265:1 281:1 
-2.12879204705891 281:1 
-0.2279140004351682 48:1 54:1 60:1 89:1 98:1 104:1 117:1 161:1 208:1 216:1 217:1 245:1 250:1 265:1 277:1 281:1 
-0.3972433370662338 60:1 89:1 99:1 104:1 117:1 206:1 245:1 250:1 265:1 274:1 277:1 281:1 
-0.7397830113180622 57:1 60:1 89:1 99:1 104:1 109:1 117:1 164:1 245:1 265:1 277:1 281:1 
-0.1866384660718215 35:1 38:1 44:1 54:1 55:1 57:1 59:1 60:1 68:1 69:1 72:1 81:1 89:1 101:1 102:1 104:1 106:1 109:1 114:1 115:1 117:1 145:1 154:1 156:1 157:1 158:1 164:1 165:1 169:1 171:1 193:1 194:1 204:1 206:1 207:1 216:1 221:1 223:1 228:1 229:1 239:1 245:1 247:1 250:1 252:1 265:1 277:1 281:1 282:1 283:1 292:1 294:1 298:1 299:1 
-0.385912877244112 87:1 205:1 
-0.07308338760438174 71:1 83:1 84:1 104:1 155:1 205:1 208:1 248:1 
-0.3158411134086604 154:1 223:1 
-0.05990751623161321 106:1 117:1 205:1 223:1 
-0.04586927926892215 38:1 47:1 59:1 70:1 72:1 79:1 103:1 108:1 109:1 117:1 144:1 156:1 157:1 204:1 207:1 232:1 240:1 242:1 260:1 281:1 299:1 
-0.1132676589220228 37:1 38:1 45:1 50:1 54:1 57:1 62:1 69:1 72:1 78:1 79:1 81:1 88:1 97:1 106:1 107:1 108:1 114:1 117:1 144:1 145:1 149:1 154:1 156:1 157:1 158:1 161:1 169:1 171:1 172:1 193:1 203:1 204:1 206:1 207:1 216:1 226:1 227:1 231:1 239:1 242:1 249:1 260:1 281:1 282:1 297:1 298:1 299:1 
-0.04053358580010279 47:1 59:1 62:1 69:1 72:1 75:1 88:1 107:1 108:1 109:1 114:1 115:1 117:1 144:1 147:1 156:1 157:1 158:1 164:1 171:1 194:1 207:1 222:1 223:1 231:1 235:1 240:1 244:1 249:1 250:1 260:1 270:1 283:1 294:1 298:1 299:1 
-0.0651196338500066 50:1 54:1 59:1 68:1 88:1 109:1 115:1 144:1 147:1 149:1 154:1 158:1 169:1 196:1 207:1 217:1 222:1 227:1 231:1 232:1 240:1 242:1 247:1 250:1 260:1 270:1 280:1 281:1 299:1 
-0.05573186907496999 38:1 44:1 47:1 50:1 57:1 59:1 62:1 69:1 72:1 75:1 88:1 103:1 109:1 114:1 115:1 117:1 144:1 149:1 156:1 157:1 169:1 171:1 172:1 204:1 206:1 207:1 209:1 217:1 218:1 223:1 226:1 231:1 249:1 260:1 281:1 283:1 295:1 298:1 299:1 
-0.1236848695816312 47:1 54:1 57:1 59:1 72:1 75:1 78:1 79:1 81:1 83:1 88:1 102:1 104:1 107:1 108:1 114:1 115:1 144:1 148:1 149:1 156:1 157:1 168:1 171:1 172:1 206:1 207:1 208:1 216:1 223:1 226:1 227:1 229:1 231:1 239:1 247:1 252:1 277:1 282:1 295:1 298:1 
-0.0005761889099076212 35:1 37:1 50:1 59:1 87:1 90:1 106:1 108:1 109:1 115:1 117:1 149:1 164:1 168:1 193:1 203:1 206:1 221:1 226:1 231:1 232:1 248:1 270:1 271:1 281:1 282:1 295:1 299:1 
-0.1211834236195824 35:1 37:1 38:1 53:1 54:1 57:1 59:1 68:1 90:1 109:1 117:1 145:1 146:1 156:1 157:1 158:1 169:1 171:1 203:1 204:1 207:1 221:1 229:1 235:1 238:1 247:1 248:1 258:1 261:1 282:1 283:1 295:1 299:1 
-0.1324989765506462 37:1 54:1 72:1 88:1 102:1 107:1 108:1 114:1 145:1 147:1 149:1 154:1 155:1 156:1 158:1 161:1 169:1 170:1 171:1 172:1 194:1 203:1 206:1 207:1 208:1 216:1 221:1 222:1 223:1 226:1 231:1 232:1 235:1 236:1 239:1 244:1 248:1 249:1 260:1 261:1 269:1 270:1 282:1 298:1 299:1 
-0.1086812883231205 45:1 47:1 54:1 55:1 57:1 68:1 79:1 88:1 97:1 101:1 102:1 104:1 107:1 108:1 109:1 114:1 115:1 117:1 144:1 145:1 147:1 149:1 154:1 157:1 158:1 164:1 171:1 172:1 194:1 206:1 207:1 208:1 216:1 217:1 221:1 223:1 227:1 228:1 229:1 231:1 235:1 239:1 250:1 252:1 261:1 282:1 283:1 294:1 298:1 299:1 
-0.1273139461706116 37:1 38:1 47:1 50:1 68:1 72:1 81:1 88:1 108:1 114:1 117:1 144:1 154:1 171:1 195:1 203:1 204:1 206:1 207:1 217:1 221:1 226:1 227:1 229:1 231:1 235:1 236:1 242:1 248:1 249:1 252:1 258:1 260:1 261:1 263:1 269:1 271:1 281:1 282:1 
-0.1262427289461519 37:1 38:1 47:1 50:1 81:1 102:1 104:1 144:1 154:1 169:1 195:1 203:1 204:1 206:1 207:1 217:1 221:1 229:1 235:1 236:1 242:1 248:1 249:1 252:1 258:1 260:1 261:1 263:1 269:1 271:1 281:1 294:1 299:1 
-0.1790526811371766 35:1 37:1 45:1 54:1 55:1 57:1 59:1 62:1 70:1 75:1 78:1 83:1 91:1 97:1 99:1 102:1 107:1 108:1 109:1 115:1 145:1 154:1 155:1 156:1 157:1 164:1 169:1 171:1 193:1 194:1 203:1 206:1 207:1 208:1 217:1 221:1 226:1 235:1 239:1 242:1 250:1 252:1 261:1 269:1 272:1 280:1 281:1 282:1 283:1 298:1 299:1 
-0.02801790204266502 38:1 47:1 50:1 51:1 54:1 57:1 68:1 70:1 75:1 80:1 81:1 88:1 103:1 108:1 115:1 144:1 149:1 158:1 194:1 216:1 217:1 226:1 231:1 232:1 240:1 242:1 248:1 249:1 260:1 261:1 270:1 272:1 281:1 299:1 
-0.1289677503917996 35:1 47:1 54:1 55:1 57:1 59:1 68:1 75:1 97:1 106:1 115:1 117:1 144:1 145:1 148:1 149:1 157:1 168:1 169:1 171:1 193:1 206:1 207:1 216:1 223:1 226:1 227:1 229:1 231:1 232:1 240:1 242:1 248:1 249:1 252:1 258:1 260:1 261:1 270:1 281:1 282:1 298:1 299:1 
-1.822602040070368 248:1 
-0.4962477158183607 41:1 55:1 73:1 103:1 104:1 105:1 117:1 144:1 154:1 171:1 190:1 193:1 196:1 205:1 217:1 223:1 250:1 251:1 263:1 281:1 293:1 299:1 
-0.5858871031491035 35:1 62:1 115:1 117:1 146:1 149:1 217:1 242:1 245:1 265:1 270:1 
-0.02724393414278364 41:1 47:1 73:1 109:1 117:1 157:1 168:1 263:1 283:1 
-1.935485437290057 55:1 115:1 
-2.900505104323475 55:1 217:1 
-0.003580961850279747 47:1 104:1 107:1 109:1 114:1 117:1 144:1 152:1 216:1 250:1 252:1 263:1 277:1 282:1 
-7.147919271626554 117:1 
-1.176529227674013 80:1 99:1 117:1 151:1 205:1 207:1 245:1 274:1 275:1 277:1 
-0.5674084069172861 35:1 80:1 102:1 117:1 148:1 168:1 205:1 207:1 223:1 225:1 233:1 245:1 277:1 
-0.9019619560245786 53:1 62:1 161:1 216:1 281:1 
-0.07538512362214718 171:1 
-0.1395645122626636 55:1 75:1 115:1 154:1 171:1 223:1 
-0.1222725016578789 37:1 117:1 203:1 217:1 221:1 223:1 260:1 
-1.5014387814686 117:1 161:1 217:1 
-0.4925465973481441 44:1 161:1 223:1 281:1 295:1 
-1.677453291104244 225:1 274:1 275:1 
-0.4051663488079977 171:1 207:1 208:1 260:1 
-0.1415782764442856 35:1 38:1 101:1 146:1 161:1 164:1 204:1 217:1 265:1 
-0.7439170688264466 47:1 106:1 
-0.2171858197394265 54:1 106:1 263:1 
-0.07530541887457694 37:1 47:1 55:1 57:1 75:1 84:1 88:1 91:1 97:1 107:1 115:1 117:1 148:1 154:1 193:1 194:1 216:1 217:1 218:1 223:1 232:1 242:1 244:1 248:1 252:1 253:1 261:1 269:1 280:1 281:1 294:1 
-0.1675956380276347 38:1 45:1 54:1 55:1 57:1 68:1 71:1 80:1 83:1 84:1 85:1 88:1 97:1 107:1 115:1 117:1 149:1 154:1 155:1 169:1 170:1 171:1 194:1 195:1 196:1 205:1 207:1 208:1 216:1 221:1 223:1 228:1 229:1 232:1 248:1 249:1 260:1 261:1 263:1 281:1 282:1 295:1 298:1 
-0.1975293300748827 37:1 38:1 45:1 54:1 55:1 57:1 59:1 68:1 78:1 79:1 80:1 84:1 85:1 102:1 106:1 109:1 117:1 149:1 154:1 155:1 156:1 157:1 158:1 161:1 164:1 165:1 168:1 170:1 171:1 195:1 203:1 204:1 205:1 206:1 207:1 208:1 217:1 221:1 229:1 231:1 235:1 236:1 242:1 248:1 249:1 250:1 252:1 263:1 265:1 269:1 281:1 298:1 
-0.04073931203172759 35:1 37:1 38:1 45:1 57:1 68:1 69:1 80:1 84:1 85:1 108:1 109:1 114:1 117:1 149:1 156:1 157:1 158:1 171:1 194:1 203:1 204:1 205:1 207:1 208:1 216:1 217:1 231:1 235:1 236:1 244:1 247:1 248:1 249:1 252:1 269:1 295:1 299:1 
-0.2349028098813144 37:1 38:1 44:1 45:1 47:1 50:1 54:1 55:1 59:1 62:1 69:1 70:1 71:1 72:1 75:1 78:1 80:1 81:1 83:1 85:1 88:1 97:1 102:1 103:1 104:1 106:1 107:1 108:1 109:1 115:1 117:1 144:1 145:1 146:1 147:1 149:1 154:1 157:1 161:1 164:1 170:1 171:1 193:1 194:1 203:1 204:1 206:1 207:1 208:1 222:1 223:1 226:1 229:1 231:1 232:1 235:1 236:1 242:1 248:1 249:1 250:1 252:1 260:1 261:1 265:1 277:1 281:1 282:1 283:1 298:1 299:1 
-0.2359410855999224 45:1 47:1 50:1 51:1 54:1 55:1 57:1 59:1 62:1 68:1 71:1 72:1 80:1 81:1 83:1 102:1 104:1 106:1 107:1 108:1 114:1 117:1 118:1 119:1 147:1 149:1 154:1 156:1 158:1 164:1 165:1 168:1 169:1 171:1 172:1 193:1 206:1 207:1 208:1 216:1 217:1 221:1 222:1 223:1 226:1 227:1 229:1 231:1 235:1 239:1 241:1 244:1 247:1 248:1 249:1 250:1 258:1 265:1 271:1 272:1 273:1 281:1 282:1 283:1 294:1 298:1 
-0.01951692198293537 50:1 51:1 57:1 59:1 106:1 195:1 206:1 207:1 223:1 244:1 263:1 277:1 282:1 298:1 
-0.2522819353377726 75:1 146:1 149:1 169:1 171:1 217:1 245:1 295:1 
-0.02400219961705448 35:1 36:1 55:1 69:1 71:1 83:1 93:1 117:1 148:1 149:1 154:1 156:1 168:1 194:1 205:1 207:1 208:1 212:1 223:1 225:1 252:1 281:1 282:1 299:1 
-0.248433609968557 38:1 44:1 47:1 51:1 53:1 54:1 55:1 57:1 59:1 62:1 68:1 71:1 72:1 75:1 81:1 83:1 84:1 87:1 88:1 90:1 93:1 97:1 104:1 106:1 107:1 114:1 115:1 117:1 148:1 149:1 154:1 155:1 161:1 164:1 168:1 169:1 194:1 195:1 206:1 207:1 208:1 216:1 217:1 221:1 223:1 228:1 229:1 231:1 232:1 238:1 240:1 248:1 249:1 250:1 252:1 260:1 263:1 265:1 270:1 272:1 277:1 281:1 294:1 295:1 297:1 298:1 299:1 
-0.3300544568940815 57:1 68:1 106:1 144:1 147:1 149:1 161:1 171:1 205:1 206:1 208:1 225:1 229:1 248:1 249:1 261:1 265:1 269:1 281:1 
-0.3132282340050362 71:1 79:1 205:1 218:1 240:1 281:1 
-0.06759196480969147 35:1 38:1 50:1 69:1 81:1 88:1 103:1 107:1 115:1 149:1 155:1 157:1 158:1 165:1 170:1 194:1 204:1 205:1 209:1 221:1 222:1 227:1 229:1 236:1 247:1 249:1 260:1 261:1 269:1 270:1 272:1 281:1 
-0.2046295273974224 83:1 
-0.02842713004023151 59:1 68:1 71:1 75:1 83:1 84:1 103:1 107:1 146:1 169:1 207:1 217:1 229:1 248:1 249:1 250:1 252:1 260:1 263:1 272:1 277:1 293:1 295:1 299:1 
-0.06993937322701223 97:1 158:1 170:1 205:1 206:1 212:1 221:1 231:1 240:1 260:1 295:1 
-0.04206904221693854 35:1 54:1 55:1 57:1 69:1 84:1 117:1 118:1 119:1 149:1 168:1 194:1 206:1 207:1 216:1 217:1 225:1 228:1 232:1 241:1 242:1 245:1 248:1 260:1 261:1 272:1 273:1 295:1 
-0.09201375758859844 35:1 54:1 68:1 81:1 84:1 85:1 103:1 107:1 115:1 144:1 147:1 155:1 170:1 194:1 228:1 229:1 231:1 232:1 247:1 248:1 249:1 252:1 260:1 265:1 270:1 281:1 
-0.02582384595588827 55:1 59:1 68:1 69:1 72:1 75:1 102:1 108:1 115:1 117:1 149:1 157:1 161:1 170:1 171:1 194:1 206:1 207:1 222:1 227:1 248:1 249:1 265:1 298:1 
-0.02315379233352101 35:1 38:1 41:1 57:1 68:1 75:1 109:1 115:1 117:1 145:1 149:1 154:1 158:1 161:1 169:1 170:1 204:1 208:1 221:1 223:1 228:1 235:1 240:1 248:1 249:1 252:1 260:1 269:1 271:1 281:1 299:1 
-0.01063255196220092 38:1 57:1 59:1 68:1 69:1 71:1 81:1 83:1 85:1 117:1 171:1 206:1 207:1 208:1 221:1 228:1 232:1 235:1 236:1 240:1 248:1 249:1 252:1 281:1 282:1 283:1 
-0.3581978655695802 166:1 293:1 
-0.8986561195521837 293:1 
-0.4618199184675559 37:1 55:1 96:1 99:1 102:1 105:1 167:1 171:1 203:1 212:1 247:1 257:1 277:1 281:1 
-0.6333574962489412 35:1 117:1 195:1 217:1 249:1 
-1.100510791105896 54:1 69:1 76:1 97:1 106:1 117:1 149:1 206:1 208:1 217:1 245:1 
-0.002613075352098435 7:1 12:1 13:1 15:1 19:1 24:1 31:1 
-0.00934026144054987 3:1 7:1 9:1 13:1 15:1 17:1 18:1 19:1 20:1 22:1 25:1 28:1 29:1 31:1 32:1 
-0.01241710291023779 3:1 7:1 13:1 14:1 16:1 17:1 19:1 21:1 22:1 27:1 28:1 29:1 31:1 
-0.01767752925778514 1:1 2:1 3:1 4:1 5:1 7:1 12:1 15:1 16:1 17:1 18:1 19:1 20:1 22:1 26:1 28:1 29:1 31:1 33:1 
-0.01112973748465339 1:1 2:1 3:1 5:1 7:1 13:1 15:1 16:1 18:1 19:1 22:1 25:1 26:1 27:1 31:1 32:1 33:1 34:1 
-0.02992112020482571 3:1 9:1 12:1 14:1 15:1 19:1 22:1 24:1 26:1 28:1 30:1 32:1 34:1 
-0.03475830781689789 1:1 2:1 5:1 6:1 8:1 12:1 13:1 16:1 18:1 20:1 22:1 25:1 26:1 28:1 30:1 31:1 32:1 
-0.01768719547238831 1:1 2:1 5:1 6:1 7:1 8:1 10:1 11:1 12:1 13:1 14:1 15:1 16:1 18:1 19:1 20:1 21:1 22:1 24:1 25:1 26:1 27:1 28:1 29:1 30:1 31:1 32:1 33:1 34:1 
-0.02471282161009561 3:1 6:1 8:1 9:1 11:1 13:1 15:1 16:1 17:1 19:1 20:1 23:1 24:1 25:1 26:1 28:1 29:1 30:1 33:1 
-0.008011102606157781 3:1 6:1 7:1 17:1 30:1 33:1 
-0.005527741458982854 5:1 7:1 10:1 12:1 13:1 14:1 16:1 19:1 20:1 21:1 23:1 27:1 29:1 30:1 31:1 32:1 
-0.01751732342001076 1:1 4:1 5:1 6:1 8:1 10:1 11:1 15:1 18:1 19:1 20:1 23:1 24:1 26:1 28:1 29:1 30:1 31:1 32:1 34:1 
-0.01124098876171576 1:1 3:1 6:1 7:1 10:1 14:1 17:1 23:1 24:1 28:1 29:1 
-0.02070515162557909 1:1 2:1 4:1 6:1 10:1 11:1 19:1 21:1 24:1 29:1 30:1 32:1 
-0.00539790120198009 5:1 7:1 10:1 12:1 13:1 15:1 18:1 19:1 20:1 21:1 24:1 25:1 26:1 27:1 28:1 31:1 34:1 
-0.008116365743843022 2:1 4:1 6:1 12:1 16:1 19:1 21:1 27:1 29:1 33:1 
-0.004307990301514885 1:1 2:1 3:1 4:1 21:1 24:1 26:1 
-0.005545978767367361 1:1 2:1 3:1 15:1 19:1 20:1 21:1 24:1 25:1 26:1 28:1 31:1 32:1 
-0.006053691179320544 2:1 4:1 14:1 15:1 
-0.00827665697453331 2:1 4:1 12:1 16:1 19:1 22:1 26:1 27:1 29:1 34:1 
-0.01521480419499346 2:1 5:1 7:1 8:1 11:1 14:1 19:1 20:1 22:1 25:1 27:1 31:1 
-0.02362469698073641 2:1 4:1 5:1 8:1 9:1 10:1 16:1 21:1 23:1 29:1 33:1 34:1 
-0.002186959069355194 1:1 4:1 7:1 11:1 14:1 23:1 
-0.003980040241735683 13:1 20:1 32:1 
-0.01009721156364383 1:1 2:1 3:1 7:1 11:1 12:1 13:1 15:1 16:1 17:1 18:1 19:1 20:1 21:1 23:1 25:1 28:1 29:1 31:1 32:1 
-0.03105800966798872 3:1 4:1 6:1 7:1 8:1 11:1 12:1 14:1 15:1 17:1 19:1 20:1 21:1 23:1 24:1 26:1 27:1 29:1 31:1 34:1 
-0.01272101049683224 6:1 11:1 12:1 15:1 18:1 19:1 21:1 24:1 25:1 28:1 29:1 32:1 
-0.007128411054226805 10:1 11:1 16:1 21:1 22:1 24:1 26:1 30:1 34:1 
-0.01386370954439996 2:1 9:1 11:1 31:1 
-0.002312856320503452 10:1 13:1 16:1 18:1 19:1 20:1 21:1 22:1 24:1 25:1 26:1 30:1 31:1 33:1 34:1 
-0.002467099159017002 7:1 8:1 10:1 12:1 16:1 19:1 20:1 21:1 22:1 23:1 24:1 26:1 27:1 29:1 30:1 31:1 
-0.00713637026540693 5:1 7:1 15:1 32:1 
-0.01412836628759835 1:1 2:1 3:1 5:1 6:1 7:1 10:1 12:1 20:1 25:1 28:1 33:1 
-0.006507320822586898 1:1 6:1 7:1 10:1 11:1 12:1 15:1 16:1 20:1 21:1 23:1 24:1 27:1 29:1 
-0.01140126447704465 1:1 2:1 3:1 4:1 5:1 6:1 7:1 8:1 9:1 10:1 11:1 12:1 13:1 15:1 16:1 18:1 19:1 20:1 21:1 23:1 25:1 26:1 27:1 29:1 30:1 31:1 32:1 33:1 34:1 
-0.02676489153628773 2:1 3:1 5:1 9:1 10:1 13:1 15:1 17:1 19:1 23:1 24:1 27:1 34:1 
-0.0308036942957149 2:1 4:1 6:1 11:1 12:1 13:1 14:1 16:1 18:1 25:1 26:1 27:1 32:1 33:1 
-0.2231216104768863 35:1 38:1 57:1 62:1 68:1 70:1 73:1 87:1 97:1 99:1 107:1 109:1 169:1 197:1 204:1 247:1 263:1 270:1 293:1 299:1 
-0.2162509923413607 47:1 57:1 59:1 71:1 97:1 109:1 157:1 161:1 197:1 205:1 206:1 207:1 208:1 212:1 243:1 294:1 
-0.01315024785837258 44:1 59:1 78:1 102:1 115:1 117:1 161:1 
-0.20549561078851 35:1 37:1 38:1 39:1 55:1 57:1 68:1 69:1 76:1 81:1 91:1 104:1 106:1 109:1 111:1 115:1 117:1 149:1 157:1 164:1 170:1 171:1 203:1 204:1 206:1 207:1 216:1 217:1 223:1 247:1 250:1 255:1 277:1 281:1 282:1 299:1 
-0.874040807752353 55:1 75:1 76:1 81:1 117:1 146:1 217:1 250:1 280:1 
-0.843052600989175 69:1 115:1 117:1 168:1 185:1 
-0.04865034764124915 44:1 55:1 71:1 81:1 83:1 84:1 106:1 107:1 149:1 168:1 207:1 208:1 216:1 225:1 248:1 269:1 280:1 281:1 298:1 
-0.01845993012220743 35:1 47:1 53:1 57:1 68:1 81:1 107:1 115:1 169:1 171:1 206:1 207:1 216:1 247:1 248:1 255:1 272:1 282:1 298:1 
-0.1291331248163248 37:1 38:1 55:1 57:1 75:1 109:1 115:1 117:1 171:1 185:1 195:1 206:1 207:1 214:1 250:1 273:1 277:1 299:1 
-0.5080085268577538 53:1 81:1 168:1 
-0.1326534314125647 38:1 44:1 47:1 54:1 75:1 79:1 80:1 97:1 107:1 147:1 168:1 169:1 171:1 183:1 185:1 206:1 207:1 221:1 229:1 235:1 290:1 295:1 
-0.1264107463071733 75:1 78:1 208:1 214:1 237:1 
-3.513273840081209 277:1 
-0.05972425119694595 35:1 38:1 68:1 69:1 102:1 104:1 106:1 115:1 154:1 156:1 158:1 161:1 169:1 170:1 204:1 205:1 206:1 207:1 212:1 241:1 263:1 282:1 283:1 298:1 299:1 
-0.1219595837360852 45:1 54:1 55:1 59:1 69:1 72:1 75:1 78:1 81:1 88:1 97:1 103:1 106:1 107:1 108:1 109:1 114:1 115:1 118:1 144:1 145:1 147:1 149:1 154:1 156:1 157:1 164:1 165:1 169:1 171:1 172:1 193:1 194:1 206:1 207:1 208:1 216:1 221:1 226:1 227:1 231:1 235:1 239:1 240:1 260:1 261:1 270:1 282:1 299:1 
-0.03903498597725753 50:1 54:1 59:1 72:1 78:1 101:1 106:1 109:1 114:1 115:1 117:1 157:1 164:1 171:1 172:1 206:1 207:1 217:1 240:1 260:1 281:1 293:1 294:1 298:1 
-0.04739564202106793 50:1 55:1 57:1 59:1 62:1 75:1 78:1 81:1 88:1 97:1 102:1 106:1 109:1 114:1 115:1 117:1 145:1 149:1 154:1 157:1 171:1 193:1 194:1 206:1 207:1 217:1 226:1 227:1 240:1 249:1 252:1 260:1 281:1 282:1 298:1 299:1 
-0.1102092097815048 35:1 47:1 54:1 69:1 72:1 75:1 76:1 81:1 104:1 109:1 114:1 115:1 117:1 145:1 149:1 171:1 172:1 196:1 207:1 208:1 227:1 229:1 239:1 240:1 281:1 282:1 
-0.06814066075736153 38:1 47:1 50:1 55:1 57:1 59:1 72:1 75:1 80:1 109:1 114:1 115:1 145:1 149:1 154:1 157:1 158:1 161:1 164:1 171:1 172:1 193:1 204:1 207:1 217:1 226:1 227:1 231:1 239:1 242:1 248:1 249:1 260:1 281:1 283:1 294:1 
-0.1045171575009683 35:1 37:1 38:1 54:1 72:1 88:1 99:1 114:1 145:1 147:1 149:1 158:1 168:1 170:1 171:1 194:1 195:1 196:1 206:1 207:1 216:1 221:1 231:1 232:1 240:1 248:1 249:1 252:1 260:1 270:1 280:1 281:1 295:1 298:1 299:1 
-0.006315031066114136 35:1 47:1 51:1 55:1 57:1 59:1 62:1 68:1 69:1 70:1 72:1 97:1 102:1 104:1 114:1 115:1 117:1 149:1 155:1 158:1 161:1 172:1 193:1 206:1 207:1 209:1 223:1 252:1 260:1 270:1 281:1 282:1 299:1 
-0.04824510072914125 44:1 59:1 69:1 75:1 101:1 102:1 104:1 106:1 109:1 114:1 115:1 117:1 144:1 145:1 149:1 154:1 157:1 164:1 165:1 171:1 172:1 207:1 208:1 209:1 221:1 223:1 239:1 240:1 252:1 269:1 270:1 294:1 298:1 
-0.07978473841937268 35:1 54:1 55:1 62:1 72:1 81:1 102:1 108:1 115:1 144:1 172:1 206:1 207:1 208:1 222:1 223:1 229:1 232:1 248:1 249:1 263:1 281:1 282:1 295:1 298:1 299:1 
-0.1265890004286028 35:1 37:1 38:1 47:1 50:1 55:1 69:1 81:1 88:1 98:1 107:1 108:1 114:1 115:1 147:1 149:1 158:1 164:1 169:1 171:1 172:1 193:1 203:1 204:1 205:1 206:1 207:1 208:1 216:1 217:1 226:1 227:1 231:1 232:1 236:1 240:1 247:1 248:1 249:1 250:1 260:1 261:1 281:1 282:1 299:1 
-0.8597858313163254 171:1 
-0.06422867157195661 35:1 50:1 53:1 54:1 66:1 68:1 70:1 75:1 79:1 117:1 144:1 148:1 149:1 168:1 169:1 170:1 195:1 207:1 217:1 221:1 232:1 235:1 240:1 248:1 263:1 280:1 281:1 295:1 
-0.1764954251262804 35:1 88:1 117:1 170:1 217:1 260:1 295:1 
-4.919239472930356 295:1 
-0.03223935850837389 57:1 59:1 68:1 85:1 87:1 109:1 115:1 117:1 154:1 164:1 165:1 171:1 217:1 222:1 227:1 228:1 231:1 236:1 248:1 249:1 250:1 252:1 282:1 283:1 299:1 
-0.08188839484951657 88:1 117:1 217:1 240:1 248:1 
-0.1563362775213203 35:1 38:1 47:1 50:1 51:1 55:1 57:1 59:1 69:1 70:1 72:1 78:1 88:1 109:1 115:1 117:1 144:1 147:1 149:1 156:1 157:1 158:1 161:1 168:1 171:1 193:1 206:1 207:1 208:1 222:1 223:1 226:1 231:1 242:1 247:1 248:1 252:1 260:1 261:1 263:1 270:1 272:1 277:1 281:1 282:1 283:1 298:1 299:1 
-0.01267395461103963 41:1 47:1 57:1 59:1 62:1 75:1 84:1 88:1 107:1 108:1 115:1 117:1 148:1 149:1 161:1 166:1 193:1 194:1 216:1 217:1 218:1 223:1 229:1 231:1 248:1 252:1 265:1 281:1 
-0.1748089335722687 35:1 38:1 44:1 45:1 54:1 55:1 57:1 62:1 69:1 70:1 75:1 78:1 81:1 90:1 105:1 109:1 115:1 116:1 117:1 146:1 148:1 149:1 161:1 164:1 168:1 169:1 171:1 193:1 206:1 207:1 208:1 217:1 221:1 222:1 223:1 225:1 240:1 242:1 245:1 248:1 250:1 252:1 274:1 275:1 280:1 281:1 282:1 283:1 295:1 297:1 299:1 
-0.1309792849050652 35:1 38:1 44:1 50:1 55:1 62:1 68:1 70:1 75:1 80:1 81:1 90:1 106:1 107:1 109:1 115:1 117:1 118:1 149:1 151:1 161:1 171:1 194:1 204:1 217:1 218:1 221:1 228:1 229:1 231:1 232:1 240:1 242:1 247:1 248:1 249:1 261:1 265:1 281:1 282:1 295:1 
-0.1438811114567224 38:1 44:1 51:1 55:1 57:1 59:1 62:1 69:1 97:1 102:1 103:1 106:1 109:1 114:1 115:1 117:1 144:1 147:1 149:1 156:1 157:1 164:1 171:1 193:1 194:1 204:1 206:1 207:1 217:1 218:1 222:1 226:1 227:1 231:1 232:1 235:1 236:1 245:1 260:1 270:1 282:1 283:1 295:1 298:1 299:1 
-0.3096928351457002 38:1 55:1 161:1 204:1 207:1 
-0.1597759953400119 35:1 37:1 38:1 44:1 45:1 50:1 54:1 55:1 57:1 59:1 68:1 72:1 75:1 103:1 108:1 109:1 117:1 144:1 145:1 148:1 149:1 155:1 156:1 161:1 165:1 168:1 169:1 170:1 194:1 203:1 204:1 207:1 208:1 224:1 231:1 232:1 235:1 240:1 260:1 270:1 281:1 282:1 298:1 299:1 
-0.1029997499929457 35:1 38:1 50:1 55:1 57:1 59:1 69:1 72:1 78:1 81:1 85:1 87:1 89:1 97:1 102:1 106:1 107:1 109:1 115:1 117:1 144:1 154:1 157:1 169:1 193:1 204:1 206:1 207:1 208:1 216:1 217:1 223:1 252:1 277:1 281:1 295:1 298:1 299:1 
-0.09364239371440568 44:1 45:1 54:1 55:1 57:1 59:1 68:1 79:1 87:1 106:1 109:1 114:1 117:1 144:1 157:1 158:1 169:1 171:1 206:1 207:1 208:1 227:1 228:1 231:1 232:1 249:1 250:1 252:1 260:1 281:1 282:1 294:1 295:1 298:1 299:1 
-0.1094563754366738 37:1 75:1 80:1 87:1 104:1 114:1 117:1 168:1 195:1 217:1 245:1 273:1 294:1 295:1 
-0.2079723412871704 35:1 44:1 45:1 47:1 50:1 51:1 54:1 55:1 57:1 59:1 62:1 72:1 81:1 101:1 102:1 104:1 108:1 109:1 114:1 115:1 145:1 146:1 147:1 148:1 149:1 156:1 157:1 158:1 164:1 165:1 169:1 171:1 172:1 193:1 194:1 195:1 205:1 206:1 207:1 208:1 209:1 216:1 221:1 222:1 226:1 227:1 229:1 231:1 235:1 239:1 240:1 244:1 249:1 250:1 252:1 261:1 265:1 270:1 281:1 282:1 283:1 294:1 298:1 299:1 
-0.1737136089813287 44:1 47:1 54:1 55:1 57:1 59:1 62:1 69:1 72:1 75:1 88:1 101:1 102:1 104:1 106:1 107:1 108:1 109:1 114:1 115:1 117:1 144:1 145:1 147:1 148:1 149:1 154:1 156:1 157:1 158:1 161:1 164:1 165:1 171:1 194:1 205:1 206:1 207:1 208:1 209:1 221:1 222:1 223:1 226:1 229:1 231:1 235:1 240:1 250:1 252:1 260:1 263:1 270:1 272:1 283:1 294:1 295:1 298:1 
-0.1796665190854225 35:1 38:1 54:1 57:1 59:1 60:1 62:1 69:1 72:1 78:1 79:1 81:1 89:1 97:1 101:1 102:1 104:1 107:1 108:1 109:1 114:1 117:1 144:1 145:1 147:1 149:1 154:1 156:1 157:1 158:1 161:1 164:1 168:1 169:1 171:1 194:1 204:1 206:1 207:1 216:1 223:1 226:1 229:1 231:1 240:1 245:1 252:1 265:1 277:1 281:1 282:1 283:1 292:1 294:1 298:1 299:1 
-0.07072573958341641 35:1 37:1 38:1 57:1 65:1 68:1 104:1 117:1 118:1 149:1 195:1 203:1 204:1 206:1 207:1 208:1 217:1 218:1 223:1 228:1 229:1 250:1 263:1 272:1 277:1 281:1 295:1 
-0.07214488364854071 35:1 45:1 47:1 50:1 54:1 57:1 62:1 69:1 75:1 80:1 83:1 103:1 106:1 117:1 118:1 149:1 169:1 171:1 205:1 206:1 207:1 225:1 231:1 232:1 240:1 242:1 245:1 248:1 270:1 279:1 281:1 299:1 
-0.2392629144598792 35:1 37:1 38:1 45:1 47:1 51:1 53:1 54:1 55:1 57:1 59:1 62:1 68:1 69:1 70:1 71:1 75:1 81:1 91:1 97:1 101:1 106:1 107:1 108:1 109:1 117:1 145:1 146:1 147:1 149:1 151:1 158:1 161:1 168:1 171:1 203:1 204:1 205:1 207:1 208:1 216:1 217:1 218:1 221:1 222:1 223:1 226:1 227:1 236:1 242:1 247:1 261:1 272:1 279:1 281:1 282:1 297:1 
-0.168704099461915 38:1 44:1 50:1 54:1 55:1 57:1 59:1 62:1 72:1 75:1 78:1 79:1 81:1 87:1 97:1 102:1 103:1 106:1 108:1 109:1 115:1 117:1 144:1 147:1 149:1 156:1 157:1 158:1 161:1 169:1 171:1 194:1 204:1 206:1 207:1 216:1 222:1 225:1 226:1 227:1 231:1 240:1 242:1 247:1 252:1 260:1 261:1 281:1 297:1 298:1 299:1 
-0.1470075740715223 35:1 38:1 47:1 54:1 55:1 57:1 68:1 78:1 80:1 88:1 99:1 106:1 108:1 109:1 114:1 115:1 117:1 144:1 145:1 147:1 149:1 154:1 156:1 157:1 158:1 161:1 164:1 165:1 171:1 172:1 193:1 194:1 204:1 206:1 207:1 209:1 222:1 223:1 226:1 227:1 229:1 235:1 236:1 240:1 247:1 250:1 252:1 261:1 282:1 283:1 298:1 
-0.0873983874166489 35:1 37:1 38:1 47:1 50:1 54:1 69:1 81:1 102:1 106:1 109:1 117:1 145:1 156:1 164:1 172:1 193:1 194:1 203:1 204:1 206:1 207:1 208:1 221:1 224:1 226:1 231:1 235:1 240:1 242:1 250:1 253:1 269:1 281:1 299:1 
-0.2213692509949395 69:1 71:1 76:1 77:1 83:1 107:1 148:1 149:1 168:1 216:1 281:1 
-0.06458502579681631 45:1 51:1 54:1 59:1 62:1 78:1 99:1 102:1 106:1 108:1 109:1 115:1 144:1 154:1 157:1 171:1 206:1 207:1 208:1 217:1 218:1 221:1 226:1 227:1 242:1 248:1 252:1 280:1 298:1 299:1 
-0.1485600970248792 209:1 
-0.34969946386686 35:1 79:1 117:1 227:1 281:1 295:1 297:1 
-1.298795703595223 55:1 80:1 99:1 117:1 158:1 205:1 207:1 217:1 225:1 
-6.028663093959144 
-1.059970750820046 115:1 161:1 207:1 223:1 
-10 
-0.4693749484928115 35:1 149:1 229:1 247:1 250:1 263:1 277:1 281:1 295:1 
-0.01227483893249144 47:1 85:1 144:1 164:1 248:1 269:1 271:1 
-2.223565745558175 38:1 204:1 
-0.5269375767540822 38:1 93:1 94:1 204:1 
-0.01081692547326085 38:1 204:1 229:1 
-0.9115350089946543 117:1 148:1 207:1 225:1 
-0.02368157422370723 35:1 68:1 70:1 117:1 205:1 208:1 216:1 218:1 225:1 229:1 242:1 248:1 249:1 281:1 
-10 
-2.939954350409572 79:1 206:1 281:1 
-0.09195360631088773 47:1 54:1 72:1 87:1 104:1 107:1 115:1 171:1 197:1 282:1 
-10 
-0.04961080114266189 75:1 88:1 97:1 147:1 149:1 161:1 207:1 232:1 240:1 265:1 281:1 
-0.007927736038017065 54:1 55:1 71:1 75:1 83:1 84:1 85:1 106:1 107:1 115:1 144:1 149:1 164:1 165:1 171:1 206:1 207:1 226:1 228:1 232:1 250:1 281:1 282:1 298:1 299:1 
-0.03506706935448856 229:1 
-0.3127622275873103 35:1 37:1 41:1 47:1 50:1 54:1 55:1 57:1 59:1 62:1 68:1 69:1 70:1 71:1 72:1 73:1 75:1 76:1 80:1 81:1 83:1 84:1 88:1 90:1 97:1 103:1 104:1 105:1 106:1 108:1 114:1 115:1 117:1 119:1 144:1 145:1 147:1 149:1 161:1 164:1 168:1 169:1 170:1 171:1 172:1 173:1 185:1 190:1 194:1 196:1 203:1 206:1 207:1 208:1 209:1 216:1 217:1 222:1 223:1 224:1 225:1 227:1 228:1 229:1 231:1 232:1 235:1 236:1 240:1 241:1 242:1 244:1 248:1 249:1 251:1 252:1 258:1 260:1 261:1 263:1 265:1 270:1 271:1 272:1 274:1 276:1 277:1 281:1 283:1 293:1 294:1 295:1 299:1 
-10 
-10 
-0.2132306979640572 54:1 55:1 57:1 59:1 62:1 63:1 68:1 72:1 75:1 81:1 87:1 88:1 90:1 97:1 104:1 106:1 115:1 117:1 146:1 148:1 154:1 168:1 169:1 170:1 172:1 193:1 194:1 195:1 206:1 207:1 216:1 223:1 228:1 229:1 231:1 232:1 241:1 242:1 247:1 248:1 249:1 250:1 252:1 260:1 263:1 265:1 270:1 272:1 281:1 282:1 294:1 295:1 297:1 
-0.1588212849477123 54:1 55:1 57:1 62:1 68:1 69:1 71:1 81:1 83:1 85:1 90:1 97:1 104:1 106:1 107:1 114:1 115:1 117:1 145:1 146:1 148:1 149:1 154:1 155:1 164:1 168:1 169:1 195:1 206:1 207:1 216:1 223:1 229:1 231:1 232:1 238:1 248:1 249:1 250:1 252:1 261:1 263:1 265:1 269:1 281:1 282:1 283:1 295:1 297:1 299:1 
-0.3124361416077123 102:1 168:1 217:1 225:1 281:1 
-2.829936572167776 79:1 216:1 223:1 
-0.1225270514633502 50:1 57:1 59:1 68:1 69:1 75:1 78:1 80:1 81:1 84:1 88:1 97:1 106:1 107:1 108:1 115:1 117:1 119:1 146:1 148:1 149:1 155:1 168:1 170:1 193:1 194:1 195:1 196:1 206:1 223:1 226:1 229:1 232:1 236:1 248:1 249:1 273:1 295:1 
-0.02091529853380583 35:1 47:1 55:1 57:1 69:1 71:1 75:1 80:1 87:1 97:1 107:1 108:1 109:1 117:1 144:1 149:1 154:1 156:1 168:1 171:1 194:1 205:1 206:1 208:1 212:1 217:1 223:1 226:1 231:1 250:1 252:1 282:1 294:1 299:1 
-10 
-1.120243395069735 117:1 217:1 
-0.05083586147483517 35:1 37:1 45:1 51:1 68:1 71:1 75:1 79:1 80:1 83:1 84:1 103:1 107:1 108:1 115:1 117:1 147:1 148:1 149:1 169:1 170:1 183:1 195:1 221:1 222:1 229:1 235:1 249:1 252:1 265:1 269:1 295:1 
-0.1421944936586417 37:1 38:1 47:1 54:1 71:1 81:1 83:1 84:1 85:1 97:1 103:1 106:1 107:1 158:1 168:1 203:1 204:1 206:1 207:1 208:1 216:1 217:1 229:1 231:1 232:1 236:1 240:1 248:1 249:1 250:1 273:1 281:1 289:1 
-0.07597940704996792 37:1 38:1 51:1 68:1 71:1 79:1 83:1 109:1 155:1 165:1 171:1 203:1 204:1 205:1 206:1 207:1 227:1 235:1 265:1 277:1 
-0.05072039593795152 236:1 
-0.1062944934662895 45:1 50:1 57:1 59:1 68:1 69:1 71:1 72:1 75:1 83:1 84:1 102:1 103:1 106:1 107:1 109:1 117:1 146:1 148:1 149:1 158:1 161:1 168:1 171:1 206:1 207:1 208:1 216:1 221:1 222:1 223:1 226:1 227:1 231:1 232:1 248:1 249:1 265:1 282:1 295:1 298:1 
-0.04962607627409378 35:1 38:1 44:1 68:1 81:1 102:1 103:1 109:1 115:1 117:1 146:1 147:1 151:1 154:1 156:1 164:1 165:1 171:1 204:1 205:1 206:1 207:1 235:1 236:1 249:1 252:1 265:1 281:1 294:1 
-0.06259316117169886 44:1 55:1 57:1 68:1 87:1 102:1 109:1 115:1 117:1 144:1 161:1 171:1 206:1 207:1 217:1 218:1 223:1 226:1 247:1 250:1 282:1 295:1 298:1 
-0.03036211086731293 38:1 62:1 68:1 79:1 108:1 144:1 149:1 168:1 170:1 171:1 195:1 204:1 207:1 217:1 245:1 249:1 265:1 272:1 281:1 
-0.09086635801727196 38:1 62:1 68:1 79:1 108:1 144:1 149:1 151:1 168:1 170:1 171:1 195:1 204:1 207:1 217:1 245:1 249:1 265:1 272:1 281:1 
-0.2407149629071146 35:1 37:1 38:1 41:1 45:1 55:1 63:1 68:1 70:1 71:1 72:1 73:1 75:1 76:1 85:1 88:1 102:1 103:1 106:1 108:1 109:1 115:1 117:1 145:1 154:1 155:1 156:1 157:1 171:1 203:1 204:1 205:1 206:1 207:1 216:1 217:1 221:1 235:1 236:1 245:1 247:1 249:1 250:1 261:1 281:1 299:1 
-0.1905284249432427 37:1 53:1 68:1 75:1 85:1 104:1 109:1 114:1 115:1 117:1 157:1 168:1 169:1 190:1 207:1 229:1 231:1 242:1 252:1 263:1 265:1 295:1 299:1 
-10 
-9.401855160874343 
-0.005479987717473885 38:1 47:1 51:1 55:1 57:1 68:1 71:1 78:1 81:1 83:1 84:1 106:1 108:1 115:1 146:1 148:1 149:1 161:1 168:1 204:1 208:1 216:1 221:1 240:1 248:1 269:1 280:1 281:1 298:1 
-1.018049490705075 99:1 171:1 206:1 207:1 217:1 281:1 
